{"learner":{"attributes":{"best_iteration":"99","best_ntree_limit":"100","scikit_learn":"{\"use_label_encoder\": null, \"n_estimators\": 100, \"objective\": \"binary:logistic\", \"max_depth\": 8, \"max_leaves\": null, \"max_bin\": null, \"grow_policy\": null, \"learning_rate\": null, \"verbosity\": null, \"booster\": null, \"tree_method\": null, \"gamma\": null, \"min_child_weight\": 10, \"max_delta_step\": null, \"subsample\": 0.8, \"sampling_method\": null, \"colsample_bytree\": 0.8, \"colsample_bylevel\": null, \"colsample_bynode\": null, \"reg_alpha\": null, \"reg_lambda\": null, \"scale_pos_weight\": null, \"base_score\": null, \"missing\": NaN, \"num_parallel_tree\": null, \"random_state\": 27, \"n_jobs\": null, \"monotone_constraints\": null, \"interaction_constraints\": null, \"importance_type\": null, \"gpu_id\": null, \"validate_parameters\": null, \"predictor\": null, \"enable_categorical\": false, \"feature_types\": null, \"max_cat_to_onehot\": null, \"max_cat_threshold\": null, \"eval_metric\": null, \"early_stopping_rounds\": null, \"callbacks\": null, \"kwargs\": {\"n_estimatores\": 20}, \"classes_\": [0, 1], \"n_classes_\": 2, \"_estimator_type\": \"classifier\"}"},"feature_names":[],"feature_types":[],"gradient_booster":{"model":{"gbtree_model_param":{"num_parallel_tree":"1","num_trees":"100","size_leaf_vector":"0"},"tree_info":[0,0,0,0,0,0,0,0,0,0,0,0,0,0,0,0,0,0,0,0,0,0,0,0,0,0,0,0,0,0,0,0,0,0,0,0,0,0,0,0,0,0,0,0,0,0,0,0,0,0,0,0,0,0,0,0,0,0,0,0,0,0,0,0,0,0,0,0,0,0,0,0,0,0,0,0,0,0,0,0,0,0,0,0,0,0,0,0,0,0,0,0,0,0,0,0,0,0,0,0],"trees":[{"base_weights":[-1.6718285E0,-1.2747592E0,-1.725176E0,-8.739726E-1,-1.4191395E0,-1.508322E0,-1.7965266E0,-4.555669E-1,-9.5745116E-1,-1.2133017E0,-1.491061E0,-1.3797542E0,-1.6687008E0,-1.7272999E0,-1.8626894E0,-6.6466165E-1,-1.2578616E-2,-1.0283087E0,-5.543478E-1,-1.0959972E0,-1.4478792E0,-9.7352344E-1,-1.5126709E0,-1.0831658E0,-1.4745107E0,-1.4681122E0,-1.7104875E0,-1.5292668E0,-1.7579943E0,-1.772095E0,-1.879212E0,-1.4492753E-1,-7.947269E-1,3.3009708E-1,-6.2068963E-1,-3.9688715E-1,-1.0690721E0,-7.234042E-1,-0E0,-1.1184971E0,3.3898305E-2,-1.4759438E0,-4.5454547E-1,-3.4042552E-1,-1.1122195E0,-1.4605292E0,-1.6983554E0,-4.2025316E-1,-1.1338583E0,-1.1825397E0,-1.53695E0,-1.325926E0,-1.6157895E0,-1.5877767E0,-1.7671624E0,-9.189189E-1,-1.5456502E0,-1.6911445E0,-1.8251889E0,-1.7384459E0,-1.907563E0,-1.7296E0,-1.8864475E0,2.857143E-1,-7.586207E-1,-4.7843137E-1,-1.0714285E0,8.6567163E-1,6.993007E-2,9.090909E-2,-1E0,2.0224719E-1,-6.976744E-1,-1.1081823E0,-4.6280992E-1,-5.771812E-1,-1.2396694E0,-6.875E-1,3.7931034E-1,-1.1520244E0,-5.194805E-1,-1.5105222E0,-7.777778E-1,-1.0769231E0,5.217391E-1,-8.992248E-1,-1.4557823E0,-1.4172575E0,-1.6690742E0,-1.0153847E0,-1.7138158E0,6.535948E-2,-7.154471E-1,-9.2809105E-1,-1.258648E0,-1.2100784E0,-2.4175824E-1,-1.5640343E0,-1.2571429E0,-1.6156863E0,-1.1885098E0,-1.6445048E0,-6.4E-1,-1.4477447E0,-1.6724668E0,-1.7819809E0,-1.2941177E0,-2.9411766E-1,-1.164557E0,-1.4879192E0,-1.678981E0,-1.7094038E0,-1.43785E0,-1.8350482E0,-1.609923E0,-1.6894904E0,-1.8221289E0,-1.7495826E0,-1.2222222E0,-1.8585153E0,-1.9184334E0,-2.7272728E-1,8.181818E-1,-7.692308E-1,8.888889E-2,-1.3E0,-4.7619048E-1,5.555556E-1,-4E-1,8.0851066E-1,-4.347826E-1,-9.6666664E-1,-7.1428575E-2,-1.1677504E0,-7.7894735E-1,-9.508197E-1,3.2258064E-2,-3.899371E-1,-1.0075188E0,-1.548387E0,-8.5714287E-1,9.69697E-1,-3.7037036E-1,-1.462039E0,-1.0837575E0,-1.8181819E-1,-9.142857E-1,-9.3333334E-1,-1.5488722E0,-9.090909E-2,-1.0458716E0,-1.7021277E0,-9.4736844E-1,-1.4289595E0,-6.3247865E-1,-1.1111112E0,-1.6920962E0,-1.7436128E0,-1.3560976E0,-5.2307695E-1,4.7826087E-1,-8.979592E-1,-0E0,-0E0,-9.7130483E-1,-7.5767916E-1,-1.3081762E0,-7.1532845E-1,-1.2590926E0,-8E-1,4E-1,-1.5318799E0,-1.7531403E0,-1.3437788E0,-7.039106E-1,-1.7142857E0,-1.1851852E0,-8.8349515E-1,-1.3597734E0,-1.432258E0,-1.7354393E0,-1.4737437E0,-4.3137255E-1,-8.9361703E-1,-1.6828254E0,-1.6180556E0,-1.8029013E0,-9.299363E-1,-1.6E0,-1.6307693E0,-8.041237E-1,-1.5132234E0,-1.0722891E0,-1.6921747E0,-8.695652E-1,-1.5099715E0,-1.727929E0,-1.4810677E0,-1.0167598E0,-1.6621717E0,-1.8451536E0,-1.6632748E0,-9.130435E-1,-1.7350717E0,-1.537301E0,-1.8308849E0,-1.3623189E0,-1.7595907E0,-1.1851852E0,-7.755102E-1,-1.4920635E0,-1.8649925E0,-1.7026548E0,-1.9266073E0,-1.8303615E0,-1.0526316E0,-1.6949153E-1,6.086956E-1,-4.1666666E-1,-1.4933333E0,-6.666667E-1,-0E0,-9.0909094E-1,-1.3454546E0,-6.086956E-1,-9.268293E-1,-1.2591257E0,2.7272728E-1,-8.603774E-1,-3.7288135E-1,-1.4029851E0,5.625E-1,-5E-1,-8.7096775E-1,-8.080808E-2,-3.859649E-1,-1.4E0,-7.2727275E-1,-1.5249406E0,-1.1318796E0,-6.7782426E-1,-5.777778E-1,2.1276596E-1,-4.1666666E-1,-1.3913044E0,-1.5772926E0,-8.5714287E-1,-1.2805755E0,-6.0240966E-1,-1.3848163E0,-1.642224E0,-2.2222222E-1,-1.1836735E0,-1.7114569E0,-9.3333334E-1,-1.7594819E0,-1.1780822E0,-9.361702E-1,-1.6521739E0,1.0588236E0,-2.2222222E-1,-1.4814814E0,-6.5753424E-1,4.489796E-1,-4.888889E-1,-1.000554E0,2.6086956E-1,-5.164319E-1,-1.3333334E0,-1.3723577E0,-9.0640396E-1,-9.126214E-1,-1.1111111E-1,-1.3060364E0,-8.741722E-1,-1.6258699E0,-1.4553528E0,-1.7889688E0,-1.3532934E0,-1.4911839E0,-9.288136E-1,-1.14285715E-1,-1.0442477E0,-1.8060606E0,-1.25E0,-6.086956E-1,-1.5151515E0,-3.7288135E-1,-1.0738255E0,-1.4267913E0,-6.4705884E-1,-1.5474006E0,-1.1267606E0,-1.764962E0,-1.3877552E0,-1.3574297E0,-1.6148909E0,-1.5067024E0,-1.7409133E0,-1.6402878E0,-9.0909094E-1,-1.8119658E0,-1.4887218E0,-1.2765957E0,-3.880597E-1,-1.7480315E0,-1.0638298E0,-1.1578947E0,-2.7272728E-1,-1.379015E0,-1.5861658E0,-1.2366412E0,-4.3243244E-1,-1.7194313E0,-1.3816425E0,-1.1450381E0,-1.5584415E0,-1.6570002E0,-1.7613245E0,-1.6440129E0,-1.3741224E0,-9.090909E-2,-1.2805755E0,-1.6861584E0,-1.032258E0,-1.8206102E0,-1.9008498E0,-1.6849184E0,-1E0,-4.1666666E-1,-1.3333334E0,-1.0204082E0,-1.7424802E0,-1.5689046E0,-8.923077E-1,-1.2727273E0,-1.8371501E0,-1.7675629E0,-1.1818181E0,-1.8666924E0,-1.4426229E0,-1.821192E0,-1.554717E0,-1.9275688E0,-1.372549E0,-1.1818181E0,-1.8407862E0],"categories":[],"categories_nodes":[],"categories_segments":[],"categories_sizes":[],"default_left":[1,1,1,1,1,1,1,1,1,1,1,1,1,1,1,1,1,1,1,1,1,1,1,1,1,1,1,1,1,1,1,1,1,1,1,1,1,1,1,1,0,1,0,1,1,1,1,1,1,1,1,1,1,1,1,1,1,1,1,1,0,1,1,1,0,1,1,0,1,0,0,1,1,1,1,1,1,0,1,1,1,1,0,0,0,1,1,1,1,0,1,1,1,1,1,1,1,1,1,1,1,1,0,1,1,1,1,0,1,1,1,1,1,1,1,1,1,1,1,1,1,0,0,1,1,1,1,0,0,0,0,1,0,1,1,1,1,1,1,0,0,0,0,1,1,1,0,1,1,0,1,0,0,1,1,0,1,1,1,0,1,1,0,1,1,1,1,1,1,0,0,1,1,1,1,1,1,1,1,1,1,1,0,0,1,1,1,1,1,0,1,1,1,1,0,1,1,1,1,1,1,1,1,1,1,1,0,1,0,0,0,1,1,1,1,0,0,0,0,0,0,0,0,0,0,0,0,0,0,0,0,0,0,0,0,0,0,0,0,0,0,0,0,0,0,0,0,0,0,0,0,0,0,0,0,0,0,0,0,0,0,0,0,0,0,0,0,0,0,0,0,0,0,0,0,0,0,0,0,0,0,0,0,0,0,0,0,0,0,0,0,0,0,0,0,0,0,0,0,0,0,0,0,0,0,0,0,0,0,0,0,0,0,0,0,0,0,0,0,0,0,0,0,0,0,0,0,0,0,0,0,0,0,0,0,0,0,0,0,0,0,0,0,0,0,0,0],"id":0,"left_children":[1,3,5,7,9,11,13,15,17,19,21,23,25,27,29,31,33,35,37,39,41,43,45,47,49,51,53,55,57,59,61,63,65,67,69,71,73,75,77,79,-1,81,-1,83,85,87,89,91,93,95,97,99,101,103,105,107,109,111,113,115,-1,117,119,121,-1,123,125,-1,127,-1,-1,129,131,133,135,137,139,-1,141,143,145,147,-1,-1,-1,149,151,153,155,-1,157,159,161,163,165,167,169,171,173,175,177,179,-1,181,183,185,187,-1,189,191,193,195,197,199,201,203,205,207,209,211,213,-1,-1,215,217,219,221,-1,-1,-1,-1,223,-1,225,227,229,231,233,235,-1,-1,-1,-1,237,239,241,-1,243,245,-1,247,-1,-1,249,251,-1,253,255,257,-1,259,261,-1,263,265,267,269,271,273,-1,-1,275,277,279,281,283,285,287,289,291,293,295,-1,-1,297,299,301,303,305,-1,307,309,311,313,-1,315,317,319,321,323,325,327,329,331,333,335,-1,337,-1,-1,-1,339,341,343,345,-1,-1,-1,-1,-1,-1,-1,-1,-1,-1,-1,-1,-1,-1,-1,-1,-1,-1,-1,-1,-1,-1,-1,-1,-1,-1,-1,-1,-1,-1,-1,-1,-1,-1,-1,-1,-1,-1,-1,-1,-1,-1,-1,-1,-1,-1,-1,-1,-1,-1,-1,-1,-1,-1,-1,-1,-1,-1,-1,-1,-1,-1,-1,-1,-1,-1,-1,-1,-1,-1,-1,-1,-1,-1,-1,-1,-1,-1,-1,-1,-1,-1,-1,-1,-1,-1,-1,-1,-1,-1,-1,-1,-1,-1,-1,-1,-1,-1,-1,-1,-1,-1,-1,-1,-1,-1,-1,-1,-1,-1,-1,-1,-1,-1,-1,-1,-1,-1,-1,-1,-1,-1,-1,-1,-1,-1,-1,-1,-1,-1,-1,-1],"loss_changes":[9.813047E2,3.1719434E2,6.305547E2,5.055847E1,5.8059082E1,2.067539E2,1.3782031E2,2.2661983E1,3.4169556E1,2.7374756E1,3.1995117E1,1.5671777E2,3.526172E1,8.885547E1,2.0214844E1,1.1123215E1,1.6771486E1,2.617041E1,1.7243752E1,1.797992E1,9.0234375E0,1.0399818E1,2.5313477E1,4.548633E1,7.596289E1,1.4319702E1,2.3088867E1,1.886621E1,5.545703E1,7.824707E0,1.1121094E1,9.3344755E0,1.1105606E1,7.1154127E0,7.918496E0,1.1719723E1,2.2486816E1,9.928558E0,1.1734914E1,1.3299255E1,0E0,6.979004E0,0E0,1.5483953E1,6.026932E0,1.7925293E1,4.840576E0,1.4202568E1,3.1442627E1,1.9293823E1,2.4645508E1,1.4205933E1,9.595154E0,1.1646973E1,1.5486328E1,8.175346E0,1.2698242E1,2.7820312E1,1.08125E1,4.9882812E0,0E0,4.1983643E0,7.75E0,6.467532E0,0E0,1.0585622E1,8.904762E0,0E0,8.380731E0,0E0,0E0,8.944652E0,7.174528E0,1.69469E1,1.4647352E1,8.611744E0,2.2451172E0,0E0,1.3194591E1,1.2267212E1,4.966234E0,5.654236E0,0E0,0E0,0E0,7.5505486E0,2.9902267E0,1.6258057E1,3.0107422E0,0E0,4.116089E0,9.543625E0,8.030529E0,1.9381378E1,1.8554443E1,1.6904907E1,8.47033E0,1.6757324E1,1.4151978E1,3.3802795E0,1.3346893E1,4.626648E0,0E0,1.1374207E1,4.407959E0,5.51416E0,7.5073853E0,0E0,5.3261757E0,1.2959473E1,4.81604E0,1.9933594E1,6.619751E0,7.7578125E0,9.347107E0,6.0456543E0,3.803711E-1,1.2980957E0,2.0975075E0,3.6816406E0,7.011719E-1,0E0,0E0,7.002674E0,6.166425E0,5.126663E0,4.3290043E0,0E0,0E0,0E0,0E0,3.2488804E0,0E0,1.5761963E1,1.2438042E1,7.4472256E0,9.030242E0,1.1751311E1,7.5709267E0,0E0,0E0,0E0,0E0,4.217575E0,9.786194E0,3.5601976E0,0E0,4.7442036E0,4.531006E0,0E0,4.9010544E0,0E0,0E0,1.505249E1,6.3513002E0,0E0,3.7462158E0,2.9327393E0,4.825226E0,0E0,9.588804E0,5.9002457E0,0E0,5.1582766E0,1.6902557E1,9.484016E0,1.7206177E1,8.064331E0,1.0906128E1,0E0,0E0,1.7347168E1,4.1367188E0,1.5206787E1,8.860697E0,2.0673218E0,4.21373E0,9.60968E0,7.5072327E0,2.3456268E0,1.5014648E-1,5.076721E0,0E0,0E0,4.76355E0,3.0482178E0,3.4863281E0,6.8775826E0,1.5136185E0,0E0,4.2430325E0,1.0583252E1,8.193657E0,2.5186768E0,0E0,7.5283203E0,1.0287109E1,4.7593384E0,1.081395E1,3.581787E0,4.5273438E0,2.1947021E0,4.242754E0,3.2980957E0,4.6796265E0,1.0180664E-1,0E0,6.125488E-1,0E0,0E0,0E0,1.9804688E0,2.1224976E0,2.0703125E-1,1.3317871E0,0E0,0E0,0E0,0E0,0E0,0E0,0E0,0E0,0E0,0E0,0E0,0E0,0E0,0E0,0E0,0E0,0E0,0E0,0E0,0E0,0E0,0E0,0E0,0E0,0E0,0E0,0E0,0E0,0E0,0E0,0E0,0E0,0E0,0E0,0E0,0E0,0E0,0E0,0E0,0E0,0E0,0E0,0E0,0E0,0E0,0E0,0E0,0E0,0E0,0E0,0E0,0E0,0E0,0E0,0E0,0E0,0E0,0E0,0E0,0E0,0E0,0E0,0E0,0E0,0E0,0E0,0E0,0E0,0E0,0E0,0E0,0E0,0E0,0E0,0E0,0E0,0E0,0E0,0E0,0E0,0E0,0E0,0E0,0E0,0E0,0E0,0E0,0E0,0E0,0E0,0E0,0E0,0E0,0E0,0E0,0E0,0E0,0E0,0E0,0E0,0E0,0E0,0E0,0E0,0E0,0E0,0E0,0E0,0E0,0E0,0E0,0E0,0E0,0E0,0E0,0E0,0E0,0E0,0E0,0E0,0E0,0E0,0E0,0E0,0E0,0E0,0E0,0E0,0E0,0E0,0E0,0E0],"parents":[2147483647,0,0,1,1,2,2,3,3,4,4,5,5,6,6,7,7,8,8,9,9,10,10,11,11,12,12,13,13,14,14,15,15,16,16,17,17,18,18,19,19,20,20,21,21,22,22,23,23,24,24,25,25,26,26,27,27,28,28,29,29,30,30,31,31,32,32,33,33,34,34,35,35,36,36,37,37,38,38,39,39,41,41,43,43,44,44,45,45,46,46,47,47,48,48,49,49,50,50,51,51,52,52,53,53,54,54,55,55,56,56,57,57,58,58,59,59,61,61,62,62,63,63,65,65,66,66,68,68,71,71,72,72,73,73,74,74,75,75,76,76,78,78,79,79,80,80,81,81,85,85,86,86,87,87,88,88,90,90,91,91,92,92,93,93,94,94,95,95,96,96,97,97,98,98,99,99,100,100,101,101,103,103,104,104,105,105,106,106,108,108,109,109,110,110,111,111,112,112,113,113,114,114,115,115,116,116,117,117,118,118,119,119,120,120,123,123,124,124,125,125,126,126,131,131,133,133,134,134,135,135,136,136,137,137,138,138,143,143,144,144,145,145,147,147,148,148,150,150,153,153,154,154,156,156,157,157,158,158,160,160,161,161,163,163,164,164,165,165,166,166,167,167,168,168,171,171,172,172,173,173,174,174,175,175,176,176,177,177,178,178,179,179,180,180,181,181,184,184,185,185,186,186,187,187,188,188,190,190,191,191,192,192,193,193,195,195,196,196,197,197,198,198,199,199,200,200,201,201,202,202,203,203,204,204,205,205,207,207,211,211,212,212,213,213,214,214],"right_children":[2,4,6,8,10,12,14,16,18,20,22,24,26,28,30,32,34,36,38,40,42,44,46,48,50,52,54,56,58,60,62,64,66,68,70,72,74,76,78,80,-1,82,-1,84,86,88,90,92,94,96,98,100,102,104,106,108,110,112,114,116,-1,118,120,122,-1,124,126,-1,128,-1,-1,130,132,134,136,138,140,-1,142,144,146,148,-1,-1,-1,150,152,154,156,-1,158,160,162,164,166,168,170,172,174,176,178,180,-1,182,184,186,188,-1,190,192,194,196,198,200,202,204,206,208,210,212,214,-1,-1,216,218,220,222,-1,-1,-1,-1,224,-1,226,228,230,232,234,236,-1,-1,-1,-1,238,240,242,-1,244,246,-1,248,-1,-1,250,252,-1,254,256,258,-1,260,262,-1,264,266,268,270,272,274,-1,-1,276,278,280,282,284,286,288,290,292,294,296,-1,-1,298,300,302,304,306,-1,308,310,312,314,-1,316,318,320,322,324,326,328,330,332,334,336,-1,338,-1,-1,-1,340,342,344,346,-1,-1,-1,-1,-1,-1,-1,-1,-1,-1,-1,-1,-1,-1,-1,-1,-1,-1,-1,-1,-1,-1,-1,-1,-1,-1,-1,-1,-1,-1,-1,-1,-1,-1,-1,-1,-1,-1,-1,-1,-1,-1,-1,-1,-1,-1,-1,-1,-1,-1,-1,-1,-1,-1,-1,-1,-1,-1,-1,-1,-1,-1,-1,-1,-1,-1,-1,-1,-1,-1,-1,-1,-1,-1,-1,-1,-1,-1,-1,-1,-1,-1,-1,-1,-1,-1,-1,-1,-1,-1,-1,-1,-1,-1,-1,-1,-1,-1,-1,-1,-1,-1,-1,-1,-1,-1,-1,-1,-1,-1,-1,-1,-1,-1,-1,-1,-1,-1,-1,-1,-1,-1,-1,-1,-1,-1,-1,-1,-1,-1,-1,-1],"split_conditions":[-1.3182297E0,-8.240839E-1,-6.1638176E-1,-2.303355E0,-2.1508536E0,8.628203E-5,8.628203E-5,8.865963E-1,1.2942414E0,6.617147E-1,-2.419223E0,-1.8836398E0,-1.9563758E0,-2.782941E-1,-5.110276E-1,-7.191831E-1,-1.3109307E-1,-4.2834765E-1,4.6351827E-3,1.0199108E-1,3.516084E0,-3.044722E0,1.8808174E-1,-7.3010856E-1,-6.4918983E-1,-3.3001357E-1,-3.403697E-1,-2.395618E0,5.344863E-1,6.758754E-1,-1.6298113E0,-3.1715277E-1,-1.9228051E0,-9.616052E-1,-8.03372E-1,-2.0956874E0,2.5852313E0,6.2338793E-1,-4.713632E-1,7.0260954E-1,1.0169492E-2,-3.784388E-2,-1.3636364E-1,2.246063E-1,-1.9162932E-1,9.402108E-1,-8.5748947E-1,-5.7450354E-1,-3.403697E-1,1.2126246E-1,1.328533E-1,-7.217941E-1,1.9840572E0,-4.0067452E-1,8.018119E-1,2.8384313E-1,7.867086E-1,4.1746363E-2,6.13062E-1,7.3028183E-1,-5.722689E-1,1.5442011E0,6.557474E-1,8.457993E-1,-2.2758621E-1,3.9167404E-2,3.827052E-1,2.597015E-1,3.3598614E-1,2.727273E-2,-3E-1,-3.4931755E-1,-4.7734845E-2,9.479703E-1,5.194503E-1,-3.058073E-1,-6.342615E-1,-2.0625001E-1,-5.2596855E-1,-9.4535124E-1,2.3942743E-1,-2.076214E0,-2.3333335E-1,-3.2307696E-1,1.5652174E-1,2.7297777E-1,7.7918637E-1,3.520665E0,-1.8450313E0,-3.046154E-1,1.8943672E0,-8.0903125E-1,8.329219E-1,-2.6432648E0,-1.6672703E0,-1.8807153E0,-5.0269425E-1,1.5414515E-1,7.806853E-1,3.0398542E-1,-2.3878584E0,5.2739954E-1,-1.92E-1,5.94797E-1,-2.809537E0,-2.7735895E-1,1.4911309E-1,-8.8235304E-2,-7.798343E-1,5.3332794E-1,4.2029967E0,-1.6750066E0,1.6643981E0,-1.6142745E0,9.272432E-1,4.6401805E-1,1.8722014E-1,2.073312E0,-2.1429801E-1,6.320556E-2,1.7199687E0,-8.1818186E-2,2.4545455E-1,2.4022264E-3,-1.6596673E-1,7.1097517E-1,-1.8902679E-1,1.6666669E-1,-1.20000005E-1,2.425532E-1,-1.3043478E-1,1.3985434E-1,-2.1428574E-2,-2.155714E0,-5.280639E-1,1.2182789E0,2.5020564E-1,-6.264034E-2,-5.5807304E-1,-4.6451613E-1,-2.5714287E-1,2.909091E-1,-1.1111111E-1,-7.2419274E-1,1.851943E-1,-4.765122E-1,-2.7428573E-1,-5.353569E-1,2.9017067E0,-2.727273E-2,9.382671E-1,-5.1063836E-1,-2.8421053E-1,1.0238831E-1,-4.3240385E-3,-3.3333337E-1,2.629652E0,2.4536533E0,-2.5084955E-1,-1.5692309E-1,6.6439384E-1,-6.5488553E-1,-0E0,-3.987963E-1,3.2632556E0,-1.04142144E-1,1.0224041E0,-2.8446516E-1,1.5822505E0,-2.4000001E-1,1.20000005E-1,-3.7611514E-2,1.8743024E0,8.5741913E-1,8.31835E-1,1.0045581E0,-7.7629226E-1,-7.6847994E-1,3.7161815E-1,3.759824E-1,1.4532136E0,-1.126132E0,-1.2941177E-1,-2.6808512E-1,-2.9252642E-1,3.1294388E-1,1.3636346E0,-3.261769E-1,1.8975991E-1,-4.8923078E-1,4.7308818E-1,-3.403697E-1,1.1059932E-1,3.1655163E-2,-2.6086956E-1,-2.7039146E-1,-3.403697E-1,-2.6995233E-1,-2.7751142E-1,2.406685E0,6.2338793E-1,2.908664E0,-2.3495133E-1,-2.5457294E0,1.191428E0,-3.3122249E0,-4.0869567E-1,3.1331925E0,-3.5555556E-1,-2.3265307E-1,-4.4761908E-1,1.1879547E0,-1.4476216E-1,5.7735004E0,-1.3468386E0,-3.157895E-1,-5.084746E-2,1.826087E-1,-1.25E-1,-4.48E-1,-2.0000002E-1,-0E0,-2.7272728E-1,-4.036364E-1,-1.826087E-1,-2.7804878E-1,-3.7773773E-1,8.1818186E-2,-2.5811324E-1,-1.1186441E-1,-4.2089555E-1,1.6875E-1,-1.5E-1,-2.6129034E-1,-2.4242425E-2,-1.1578947E-1,-4.2000002E-1,-2.1818183E-1,-4.574822E-1,-3.3956388E-1,-2.0334728E-1,-1.7333335E-1,6.3829795E-2,-1.25E-1,-4.1739133E-1,-4.7318777E-1,-2.5714287E-1,-3.8417268E-1,-1.807229E-1,-4.154449E-1,-4.926672E-1,-6.666667E-2,-3.5510206E-1,-5.134371E-1,-2.8E-1,-5.278446E-1,-3.5342467E-1,-2.8085107E-1,-4.9565217E-1,3.176471E-1,-6.666667E-2,-4.4444445E-1,-1.9726028E-1,1.3469388E-1,-1.4666668E-1,-3.001662E-1,7.826087E-2,-1.5492958E-1,-4.0000004E-1,-4.1170734E-1,-2.719212E-1,-2.7378643E-1,-3.3333335E-2,-3.9181092E-1,-2.6225168E-1,-4.87761E-1,-4.3660584E-1,-5.3669065E-1,-4.0598804E-1,-4.4735518E-1,-2.7864408E-1,-3.4285717E-2,-3.1327432E-1,-5.418182E-1,-3.75E-1,-1.826087E-1,-4.5454547E-1,-1.1186441E-1,-3.2214767E-1,-4.280374E-1,-1.9411767E-1,-4.642202E-1,-3.380282E-1,-5.294886E-1,-4.1632655E-1,-4.0722895E-1,-4.844673E-1,-4.5201075E-1,-5.22274E-1,-4.9208635E-1,-2.7272728E-1,-5.435898E-1,-4.4661656E-1,-3.8297874E-1,-1.16417915E-1,-5.244095E-1,-3.1914896E-1,-3.4736842E-1,-8.1818186E-2,-4.137045E-1,-4.7584975E-1,-3.7099236E-1,-1.2972973E-1,-5.158294E-1,-4.1449276E-1,-3.4351146E-1,-4.675325E-1,-4.9710009E-1,-5.283974E-1,-4.932039E-1,-4.1223672E-1,-2.727273E-2,-3.8417268E-1,-5.058476E-1,-3.0967742E-1,-5.4618305E-1,-5.70255E-1,-5.054755E-1,-3E-1,-1.25E-1,-4.0000004E-1,-3.0612245E-1,-5.2274406E-1,-4.7067142E-1,-2.6769233E-1,-3.818182E-1,-5.511451E-1,-5.302689E-1,-3.5454544E-1,-5.6000775E-1,-4.3278688E-1,-5.4635763E-1,-4.664151E-1,-5.782707E-1,-4.1176474E-1,-3.5454544E-1,-5.522359E-1],"split_indices":[27,26,26,26,27,27,27,169,186,26,25,26,26,375,373,80,371,379,350,262,323,25,25,384,384,384,390,25,26,25,25,272,27,70,226,27,169,399,9,377,0,110,0,182,80,26,83,374,390,270,312,6,352,199,350,354,26,350,350,26,0,272,26,39,0,278,16,0,185,0,0,66,172,273,68,45,58,0,243,6,70,25,0,0,0,354,79,169,25,0,218,374,419,26,25,25,260,25,256,277,26,27,0,285,25,375,387,0,5,155,112,25,167,25,115,356,262,385,365,352,273,0,0,169,375,52,59,0,0,0,0,10,0,27,52,168,10,11,383,0,0,0,0,386,119,207,0,387,174,0,41,0,0,196,83,0,28,277,76,0,251,373,0,69,350,375,266,374,22,0,0,397,273,273,256,406,199,272,178,169,181,26,0,0,404,166,10,66,198,0,26,390,310,270,0,377,390,40,385,164,399,272,75,25,281,41,0,112,0,0,0,285,11,383,339,0,0,0,0,0,0,0,0,0,0,0,0,0,0,0,0,0,0,0,0,0,0,0,0,0,0,0,0,0,0,0,0,0,0,0,0,0,0,0,0,0,0,0,0,0,0,0,0,0,0,0,0,0,0,0,0,0,0,0,0,0,0,0,0,0,0,0,0,0,0,0,0,0,0,0,0,0,0,0,0,0,0,0,0,0,0,0,0,0,0,0,0,0,0,0,0,0,0,0,0,0,0,0,0,0,0,0,0,0,0,0,0,0,0,0,0,0,0,0,0,0,0,0,0,0,0,0,0,0,0,0,0],"split_type":[0,0,0,0,0,0,0,0,0,0,0,0,0,0,0,0,0,0,0,0,0,0,0,0,0,0,0,0,0,0,0,0,0,0,0,0,0,0,0,0,0,0,0,0,0,0,0,0,0,0,0,0,0,0,0,0,0,0,0,0,0,0,0,0,0,0,0,0,0,0,0,0,0,0,0,0,0,0,0,0,0,0,0,0,0,0,0,0,0,0,0,0,0,0,0,0,0,0,0,0,0,0,0,0,0,0,0,0,0,0,0,0,0,0,0,0,0,0,0,0,0,0,0,0,0,0,0,0,0,0,0,0,0,0,0,0,0,0,0,0,0,0,0,0,0,0,0,0,0,0,0,0,0,0,0,0,0,0,0,0,0,0,0,0,0,0,0,0,0,0,0,0,0,0,0,0,0,0,0,0,0,0,0,0,0,0,0,0,0,0,0,0,0,0,0,0,0,0,0,0,0,0,0,0,0,0,0,0,0,0,0,0,0,0,0,0,0,0,0,0,0,0,0,0,0,0,0,0,0,0,0,0,0,0,0,0,0,0,0,0,0,0,0,0,0,0,0,0,0,0,0,0,0,0,0,0,0,0,0,0,0,0,0,0,0,0,0,0,0,0,0,0,0,0,0,0,0,0,0,0,0,0,0,0,0,0,0,0,0,0,0,0,0,0,0,0,0,0,0,0,0,0,0,0,0,0,0,0,0,0,0,0,0,0,0,0,0,0,0,0,0,0,0,0,0,0,0,0,0,0,0,0,0,0,0,0,0,0,0,0,0,0,0,0,0,0,0],"sum_hessian":[4.6429E4,5.502E3,4.0927E4,1.459E3,4.043E3,1.013775E4,3.078925E4,2.4375E2,1.21525E3,1.0515E3,2.9915E3,5.63225E3,4.5055E3,1.50595E4,1.572975E4,1.6525E2,7.85E1,1.03225E3,1.83E2,7.0475E2,3.4675E2,1.2175E2,2.86975E3,1.36675E3,4.2655E3,7.83E2,3.7225E3,2.02775E3,1.303175E4,2.443E3,1.328675E4,3.35E1,1.3175E2,5.05E1,2.8E1,6.325E1,9.69E2,1.4E2,4.3E1,6.91E2,1.375E1,3.3675E2,1E1,2.25E1,9.925E1,2.2475E3,6.2225E2,9.775E1,1.269E3,7.55E2,3.5105E3,4.04E2,3.79E2,1.18525E3,2.53725E3,5.45E1,1.97325E3,6.54575E3,6.486E3,1.968E3,4.75E2,6.24E2,1.266275E4,2E1,1.35E1,6.275E1,6.9E1,1.575E1,3.475E1,1E1,1.8E1,2.125E1,4.2E1,9.095E2,5.95E1,1.1075E2,2.925E1,1.5E1,2.8E1,6.535E2,3.75E1,3.1975E2,1.7E1,1.2E1,1.05E1,6.35E1,3.575E1,1.86775E3,3.7975E2,1.525E1,6.07E2,3.725E1,6.05E1,4.8225E2,7.8675E2,7.3325E2,2.175E1,3.1965E3,3.14E2,1.265E2,2.775E2,3.675E2,1.15E1,4.535E2,7.3175E2,2.4575E3,7.975E1,1.6E1,3.85E1,1.3855E3,5.8775E2,6.10025E3,4.455E2,6.19475E3,2.9125E2,1.255E3,7.13E2,5.98E2,2.6E1,6.79125E3,5.8715E3,1E1,1E1,4.125E1,2.15E1,4.9E1,2E1,1.7E1,1.775E1,1.075E1,1.05E1,2.9E1,1.3E1,7.68E2,1.415E2,2.95E1,3E1,7.85E1,3.225E1,1.45E1,1.475E1,1.55E1,1.25E1,1.1425E2,5.3925E2,2.1E1,1.65E1,2.15E1,2.9825E2,1E1,5.35E1,2.25E1,1.325E1,1.8395E3,2.825E1,1.7E1,3.6275E2,5.5675E2,5.025E1,1.525E1,2.2E1,4.8E1,1.25E1,2.15E1,4.6075E2,7.225E1,7.145E2,6.75E1,6.6575E2,1.15E1,1.025E1,2.73975E3,4.5675E2,2.7025E2,4.375E1,1.005E2,2.6E1,1.02E2,1.755E2,1.1525E2,2.5225E2,4.4175E2,1.175E1,1.075E1,7.21E2,2.87E2,2.1705E3,3.825E1,4.15E1,1.525E1,2.325E1,1.3035E3,8.2E1,5.7725E2,1.05E1,5.255E2,5.57475E3,4.0175E2,4.375E1,3.5125E2,5.8435E3,2.6925E2,2.2E1,9.5775E2,2.9725E2,6.9675E2,1.625E1,5.855E2,1.25E1,1.125E1,1.475E1,6.50975E3,2.815E2,5.35375E3,5.1775E2,2.75E1,1.375E1,1.05E1,1.1E1,3.65E1,1.25E1,1E1,1E1,1.275E1,1.625E1,2.1425E2,5.5375E2,1E1,1.315E2,1.375E1,1.575E1,1.5E1,1.5E1,3E1,4.85E1,1.325E1,1.9E1,1E1,1.0425E2,4.805E2,5.875E1,1.025E1,1.075E1,1.1E1,1.05E1,2.8525E2,1.3E1,3.375E1,1.975E1,1.53025E3,3.0925E2,1.7E1,1.125E1,3.525E2,1.025E1,5.395E2,1.725E1,2.25E1,2.775E1,1.175E1,1.025E1,1.25E1,3.55E1,1.125E1,1.025E1,4.5025E2,1.05E1,5.225E1,2E1,6.14E2,1.005E2,5.05E1,1.7E1,5.9125E2,7.45E1,1.2205E3,1.51925E3,4.16E2,4.075E1,1.975E2,7.275E1,1.65E1,2.725E1,8.15E1,1.9E1,1.05E1,1.55E1,2.85E1,7.35E1,1.595E2,1.6E1,8.075E1,3.45E1,2.2875E2,2.35E1,2.48E2,1.9375E2,1.855E2,5.355E2,2.77E2,1E1,2.105E3,6.55E1,2.25E1,1.575E1,3.075E1,1.075E1,1.325E1,1E1,4.66E2,8.375E2,6.45E1,1.75E1,5.265E2,5.075E1,6.45E1,4.61E2,1.80075E3,3.774E3,1.535E2,2.4825E2,1E1,3.375E1,3.3675E2,1.45E1,4.0795E3,1.764E3,2.5925E2,1E1,1.1E1,1.1E1,1.125E1,9.465E2,2.82E2,1.525E1,1E1,6.8675E2,5.755E2,1E1,6.48025E3,2.95E1,1.5E2,1.315E2,5.342E3,1.175E1,1E1,5.0775E2],"tree_param":{"num_deleted":"0","num_feature":"470","num_nodes":"347","size_leaf_vector":"0"}},{"base_weights":[-1.2594522E0,-9.60625E-1,-1.3115113E0,-5.93807E-1,-1.0509874E0,-1.0374253E0,-1.3515868E0,-5.2278304E-1,-1.0787579E0,-8.8044614E-1,-1.1155201E0,-9.119681E-1,-1.1982534E0,-1.2730958E0,-1.4005743E0,-2.3742996E-1,-6.3568604E-1,-1.1504734E0,-2.97412E-1,-7.974777E-1,-1.1176178E0,-1.0726312E0,-1.323651E0,-6.94968E-1,-1.0437967E0,-1.1361432E0,-1.361735E0,-1.1924257E0,-1.3591045E0,-1.2266634E0,-1.4125066E0,-3.204217E-1,6.249954E-1,-6.977541E-1,-1.4878164E-1,-1.236089E0,-7.036596E-1,-8.20457E-1,-1.2823221E-2,-1.1689321E0,-5.0548106E-1,-9.0546525E-1,-1.1184503E0,-1.1421248E0,-1.3678428E0,-7.3311657E-1,1.3098447E-1,-8.3219284E-1,-1.1313792E0,-8.296357E-1,-1.173615E0,-6.3642645E-1,-1.3749636E0,-1.0054643E0,-1.2348273E0,-1.2606049E0,-1.3849876E0,-1.5004067E-1,-1.235116E0,-1.2715147E0,-1.4256887E0,-1.5385798E-1,-7.080768E-1,1.1291354E0,-2.0293164E-1,-3.5051447E-1,-7.7371335E-1,-3.3574736E-1,8.3186895E-1,-6.02393E-1,-1.3015207E0,-1.0016892E0,-2.613804E-1,-8.63193E-1,-3.510061E-1,3.9312914E-1,-5.2522206E-1,-9.106835E-1,-1.252215E0,1.0501066E-1,-8.456198E-1,-9.9645764E-1,-7.338418E-1,-9.555643E-1,-1.1682707E0,-1.2112753E0,-4.557166E-1,-7.8184E-1,-1.3801235E0,-6.62218E-1,-1.0602853E0,1.0279877E0,-2.1886775E-1,-9.3888956E-1,-4.234314E-1,-1.1678935E0,-8.035681E-1,-9.711417E-1,-3.114855E-1,-1.0458785E0,-1.2464888E0,-8.526006E-1,-1.3894007E0,-1.0190074E0,6.606707E-2,-1.2548454E0,-1.0022265E0,-1.2097877E0,-1.391159E0,-1.32136E0,-1.4145298E0,-1.2660753E0,-1.0612272E0,-1.3585801E0,-1.1769564E0,-1.4341692E0,-1.2766064E0,7.2958565E-1,-2.260255E-1,-8.347422E-1,1.530909E-1,-8.3789736E-2,-6.519297E-1,-1.0552782E0,-6.796473E-1,4.552179E-1,-4.9397385E-1,-1.3823688E0,-6.1478806E-1,-9.927142E-1,-7.445871E-1,-5.097031E-1,7.209992E-1,-1.0998374E0,-3.2863802E-1,-1.3070251E0,-9.605725E-1,-1.0210867E0,-4.176175E-1,-9.6023667E-1,-5.565896E-1,-1.0266613E0,-6.065989E-1,-1.1985322E0,-8.903522E-1,-8.6963934E-1,-1.3556806E0,-8.143184E-1,-1.3913016E0,-6.8992454E-1,5.8921166E-2,-2.7760246E-1,-1.1286056E0,4.8451573E-1,-6.316628E-1,-9.9952555E-1,-4.2124963E-1,-5.6598365E-1,2.7864364E-1,-1.1130569E0,-1.3534796E0,4.3013528E-2,-8.876427E-1,-1.0491214E0,-3.2077506E-1,-8.122534E-1,2.941279E-1,-1.0768019E0,-3.0766794E-1,-4.468606E-1,-1.2585539E0,-1.4011676E0,-9.6380275E-1,-9.721363E-1,-1.3075291E0,-1.2645836E0,-9.289062E-1,-8.142667E-1,-1.1350832E0,-9.2455316E-1,-1.2423289E0,-1.4081014E0,-7.881579E-1,-1.3368104E0,-9.7370815E-1,-1.4167218E0,-6.4679855E-1,-1.1924785E0,-1.3618317E0,-1.1112334E0,-5.6143343E-1,-1.4377916E0,-1.2620392E0,-1.2700636E0,-9.98763E-1,-1.401992E0,-1.4637219E0,-1.0387113E0,-1.3064346E0,-4.563198E-1,1.2932687E-1,-9.566141E-1,-1.2174326E-1,1.5544623E-1,-8.323709E-1,-3.5481575E-1,-9.5915586E-1,-1.232803E0,-6.6055983E-1,-2.751425E-1,-7.778582E-1,-1.3794518E-1,-8.8435477E-1,-8.0897516E-1,-1.4488221E0,-1.163041E0,-8.2330763E-1,-8.8388526E-1,-3.724875E-1,-6.809929E-1,1.6773371E-1,-1.2512319E0,-6.5789646E-1,-6.609959E-1,1.6022036E-2,-1.4093236E0,-1.1734165E0,-1.2271363E0,-7.492506E-2,-1.0468616E0,-3.0346048E-1,-1.1607215E0,-5.5966765E-1,-3.953934E-1,-1.0264347E0,-1.0749753E0,-6.287813E-1,-5.9919108E-2,-7.5978976E-1,-1.2519082E0,-1.0786011E0,-4.3066688E-2,-9.5726305E-1,-1.7856905E-1,-1.1489632E0,-1.4307175E0,-8.9339095E-1,-1.4151608E0,-1.0798774E0,1.964081E-1,-7.133373E-1,4.4576722E-1,-6.3754016E-1,-3.2651314E-1,-1.1863348E0,-1.6046794E-1,-1.0378842E0,-1.1638516E0,-8.6369985E-1,-6.4105526E-2,-1.0022777E0,-3.3453667E-1,-1.0703425E0,-1.1594913E0,-8.6769736E-1,-1.4706668E0,-1.228763E0,-1.0374227E0,-3.7859005E-1,-7.7413076E-1,-1.3070167E0,-1.1599194E0,-8.029881E-1,-7.0773697E-1,1.2897012E-1,-1.2735837E0,-5.499583E-1,-1.412457E0,-9.5112735E-1,-1.004754E0,-4.9391007E-1,-1.3578769E0,-9.271331E-1,-1.274386E0,-9.35522E-1,-9.94899E-1,-2.2825146E-1,-1.1994294E0,-6.7851967E-1,-1.2150139E0,-7.8746516E-1,-1.0331979E0,-3.476191E-1,-1.2659551E0,-8.490028E-1,-1.4223763E0,-8.760033E-1,-1.1744804E0,-1.3645985E0,-1.0917325E0,-4.3346876E-1,-1.4186957E0,-8.1147903E-1,-3.957985E-1,-1.2060515E0,-1.4238075E0,-1.1766443E0,-1.1804804E0,-7.487243E-1,-1.4476043E0,-9.303945E-1,-1.3901467E0,-1.1215445E0,-1.2908306E0,-5.736505E-1,-1.0350693E0,-6.054794E-2,-1.3801101E0,-1.4647827E0,-1.4752868E0,-1.4187981E0,-4.516018E-1,-1.1683611E0,-1.332467E0,-9.6678E-1],"categories":[],"categories_nodes":[],"categories_segments":[],"categories_sizes":[],"default_left":[1,1,1,1,1,1,1,1,1,1,1,1,1,1,1,1,1,1,0,1,1,1,1,1,1,1,1,1,1,1,1,1,1,1,1,1,1,1,1,1,1,1,1,1,1,1,1,1,1,1,1,0,1,1,1,1,1,0,1,1,1,1,1,0,0,1,1,1,0,0,1,0,0,1,1,0,0,1,1,0,0,1,1,1,1,1,0,0,1,1,1,0,1,1,1,1,1,1,1,1,1,0,1,1,0,1,1,1,1,1,1,1,1,1,1,1,1,0,1,1,0,1,1,1,1,0,1,1,0,1,1,1,0,1,1,1,1,1,0,1,1,1,1,1,1,1,1,0,1,1,1,0,1,0,1,1,1,1,0,1,1,0,1,1,0,0,0,1,1,0,1,1,0,1,1,1,1,1,1,1,1,1,0,1,1,1,0,1,1,1,0,1,1,1,1,1,1,1,1,0,0,0,0,0,0,0,0,0,0,0,0,0,0,0,0,0,0,0,0,0,0,0,0,0,0,0,0,0,0,0,0,0,0,0,0,0,0,0,0,0,0,0,0,0,0,0,0,0,0,0,0,0,0,0,0,0,0,0,0,0,0,0,0,0,0,0,0,0,0,0,0,0,0,0,0,0,0,0,0,0,0,0,0,0,0,0,0,0,0,0,0,0,0,0,0,0,0,0,0,0,0,0,0,0,0,0,0,0,0,0,0,0,0,0,0,0,0,0,0,0,0,0,0,0,0],"id":1,"left_children":[1,3,5,7,9,11,13,15,17,19,21,23,25,27,29,31,33,35,-1,37,39,41,43,45,47,49,51,53,55,57,59,61,63,65,67,69,71,73,75,77,79,81,83,85,87,89,91,93,95,97,99,-1,101,103,105,107,109,-1,111,113,115,117,119,-1,-1,121,123,125,-1,-1,127,-1,-1,129,131,-1,-1,133,135,-1,-1,137,139,141,143,145,-1,-1,147,149,151,-1,153,155,157,159,161,163,165,167,169,-1,171,173,-1,175,177,179,181,183,185,187,189,191,193,195,197,-1,199,201,-1,203,205,207,209,-1,211,213,-1,215,217,219,-1,221,223,225,227,229,-1,231,233,235,237,239,241,243,245,-1,247,249,251,-1,253,-1,255,257,259,261,-1,263,265,-1,267,269,-1,-1,-1,271,273,-1,275,277,-1,279,281,283,285,287,289,291,293,295,-1,297,299,301,-1,303,305,307,-1,309,311,313,315,317,319,321,323,-1,-1,-1,-1,-1,-1,-1,-1,-1,-1,-1,-1,-1,-1,-1,-1,-1,-1,-1,-1,-1,-1,-1,-1,-1,-1,-1,-1,-1,-1,-1,-1,-1,-1,-1,-1,-1,-1,-1,-1,-1,-1,-1,-1,-1,-1,-1,-1,-1,-1,-1,-1,-1,-1,-1,-1,-1,-1,-1,-1,-1,-1,-1,-1,-1,-1,-1,-1,-1,-1,-1,-1,-1,-1,-1,-1,-1,-1,-1,-1,-1,-1,-1,-1,-1,-1,-1,-1,-1,-1,-1,-1,-1,-1,-1,-1,-1,-1,-1,-1,-1,-1,-1,-1,-1,-1,-1,-1,-1,-1,-1,-1,-1,-1,-1,-1,-1,-1,-1,-1,-1,-1,-1,-1,-1,-1],"loss_changes":[6.776172E2,2.141084E2,4.0679297E2,4.3617462E1,5.6208008E1,9.464404E1,1.2287109E2,3.5958466E1,8.787262E0,2.7273315E1,3.219922E1,7.564673E1,1.9533691E1,8.489258E1,3.966797E1,2.3056664E1,2.4147858E1,4.8255005E0,0E0,1.9171509E1,1.0982666E1,2.2946045E1,3.5654297E0,3.1980713E1,2.9800415E1,1.637561E1,4.561035E0,4.982715E1,1.3621094E1,1.1541016E1,3.2875E1,1.8743168E1,1.2071142E1,1.8494598E1,1.7147356E1,4.341629E0,3.19979E0,2.0432922E1,6.714088E0,6.154785E0,6.372208E0,9.859375E0,1.877246E1,5.675873E0,2.5840454E0,2.1737488E1,1.4511017E1,2.0945557E1,1.3071167E1,1.2012993E1,1.1203247E1,0E0,3.005127E0,1.74281E1,2.3172852E1,6.7122803E0,7.0839844E0,0E0,5.53833E0,1.1614502E1,1.9734375E1,1.3266599E1,9.668991E0,0E0,0E0,1.0358846E1,1.4722443E1,9.984323E0,0E0,0E0,5.323349E0,0E0,0E0,1.3803101E1,1.5325503E1,0E0,0E0,9.148453E0,2.8016357E0,0E0,0E0,5.852112E0,9.04718E0,1.3755493E1,1.4679199E1,4.6718903E0,0E0,0E0,2.012085E0,1.5980225E1,8.811188E0,0E0,1.0054487E1,1.1733795E1,1.0477982E1,9.188721E0,8.615623E0,6.3306427E0,1.1612623E1,1.0952209E1,7.640991E0,0E0,1.348877E0,1.4706055E1,0E0,1.4146973E1,9.582336E0,7.3771973E0,2.4441528E0,6.89209E0,4.5341797E0,5.9870605E0,4.359253E0,4.525757E0,1.1620361E1,1.32890625E1,5.2229004E0,0E0,1.5668502E1,6.523037E0,0E0,1.2641607E1,5.1970234E0,9.288116E0,1.7256653E1,0E0,8.976292E0,2.5878143E0,0E0,1.2012421E1,2.5490906E1,9.069145E0,0E0,3.5101318E0,2.6008413E0,1.2286377E0,1.0278267E1,7.4830627E0,0E0,7.659981E0,9.917065E0,8.551117E0,8.373608E0,9.439453E0,1.0602158E1,7.1348534E0,1.5514374E0,0E0,2.0844727E0,1.6084045E1,8.484852E0,0E0,6.864441E0,0E0,3.9663105E0,6.7155457E0,8.720551E0,9.6860485E0,0E0,8.300232E0,1.628418E0,0E0,7.9691315E0,7.281952E0,0E0,0E0,0E0,9.856506E0,3.807355E0,0E0,8.2146E0,1.3103027E0,0E0,1.5418213E1,1.8477173E0,1.3917969E1,6.422104E0,8.481087E0,5.821869E0,5.7817E0,6.5598145E0,1.3144531E0,0E0,4.9731445E0,3.9002533E0,2.7055664E0,0E0,6.2126465E0,3.6305542E0,3.640335E0,0E0,8.8494873E-1,5.3137207E0,6.5856934E0,9.178345E0,8.623047E0,2.2636719E0,7.707657E0,5.9627686E0,0E0,0E0,0E0,0E0,0E0,0E0,0E0,0E0,0E0,0E0,0E0,0E0,0E0,0E0,0E0,0E0,0E0,0E0,0E0,0E0,0E0,0E0,0E0,0E0,0E0,0E0,0E0,0E0,0E0,0E0,0E0,0E0,0E0,0E0,0E0,0E0,0E0,0E0,0E0,0E0,0E0,0E0,0E0,0E0,0E0,0E0,0E0,0E0,0E0,0E0,0E0,0E0,0E0,0E0,0E0,0E0,0E0,0E0,0E0,0E0,0E0,0E0,0E0,0E0,0E0,0E0,0E0,0E0,0E0,0E0,0E0,0E0,0E0,0E0,0E0,0E0,0E0,0E0,0E0,0E0,0E0,0E0,0E0,0E0,0E0,0E0,0E0,0E0,0E0,0E0,0E0,0E0,0E0,0E0,0E0,0E0,0E0,0E0,0E0,0E0,0E0,0E0,0E0,0E0,0E0,0E0,0E0,0E0,0E0,0E0,0E0,0E0,0E0,0E0,0E0,0E0,0E0,0E0,0E0,0E0,0E0,0E0,0E0,0E0,0E0,0E0],"parents":[2147483647,0,0,1,1,2,2,3,3,4,4,5,5,6,6,7,7,8,8,9,9,10,10,11,11,12,12,13,13,14,14,15,15,16,16,17,17,19,19,20,20,21,21,22,22,23,23,24,24,25,25,26,26,27,27,28,28,29,29,30,30,31,31,32,32,33,33,34,34,35,35,36,36,37,37,38,38,39,39,40,40,41,41,42,42,43,43,44,44,45,45,46,46,47,47,48,48,49,49,50,50,52,52,53,53,54,54,55,55,56,56,58,58,59,59,60,60,61,61,62,62,65,65,66,66,67,67,70,70,73,73,74,74,77,77,78,78,81,81,82,82,83,83,84,84,85,85,88,88,89,89,90,90,92,92,93,93,94,94,95,95,96,96,97,97,98,98,99,99,100,100,102,102,103,103,105,105,106,106,107,107,108,108,109,109,110,110,111,111,112,112,113,113,114,114,115,115,116,116,118,118,119,119,121,121,122,122,123,123,124,124,126,126,127,127,129,129,130,130,131,131,133,133,134,134,135,135,136,136,137,137,139,139,140,140,141,141,142,142,143,143,144,144,145,145,146,146,148,148,149,149,150,150,152,152,154,154,155,155,156,156,157,157,159,159,160,160,162,162,163,163,167,167,168,168,170,170,171,171,173,173,174,174,175,175,176,176,177,177,178,178,179,179,180,180,181,181,183,183,184,184,185,185,187,187,188,188,189,189,191,191,192,192,193,193,194,194,195,195,196,196,197,197,198,198],"right_children":[2,4,6,8,10,12,14,16,18,20,22,24,26,28,30,32,34,36,-1,38,40,42,44,46,48,50,52,54,56,58,60,62,64,66,68,70,72,74,76,78,80,82,84,86,88,90,92,94,96,98,100,-1,102,104,106,108,110,-1,112,114,116,118,120,-1,-1,122,124,126,-1,-1,128,-1,-1,130,132,-1,-1,134,136,-1,-1,138,140,142,144,146,-1,-1,148,150,152,-1,154,156,158,160,162,164,166,168,170,-1,172,174,-1,176,178,180,182,184,186,188,190,192,194,196,198,-1,200,202,-1,204,206,208,210,-1,212,214,-1,216,218,220,-1,222,224,226,228,230,-1,232,234,236,238,240,242,244,246,-1,248,250,252,-1,254,-1,256,258,260,262,-1,264,266,-1,268,270,-1,-1,-1,272,274,-1,276,278,-1,280,282,284,286,288,290,292,294,296,-1,298,300,302,-1,304,306,308,-1,310,312,314,316,318,320,322,324,-1,-1,-1,-1,-1,-1,-1,-1,-1,-1,-1,-1,-1,-1,-1,-1,-1,-1,-1,-1,-1,-1,-1,-1,-1,-1,-1,-1,-1,-1,-1,-1,-1,-1,-1,-1,-1,-1,-1,-1,-1,-1,-1,-1,-1,-1,-1,-1,-1,-1,-1,-1,-1,-1,-1,-1,-1,-1,-1,-1,-1,-1,-1,-1,-1,-1,-1,-1,-1,-1,-1,-1,-1,-1,-1,-1,-1,-1,-1,-1,-1,-1,-1,-1,-1,-1,-1,-1,-1,-1,-1,-1,-1,-1,-1,-1,-1,-1,-1,-1,-1,-1,-1,-1,-1,-1,-1,-1,-1,-1,-1,-1,-1,-1,-1,-1,-1,-1,-1,-1,-1,-1,-1,-1,-1,-1],"split_conditions":[-1.1279166E0,-1.1874949E0,-1.3257662E0,1.8824484E-2,-2.0427728E0,8.628203E-5,1.9207811E-1,-2.0956874E0,1.3519022E0,7.2717386E-1,5.0479877E-1,-5.271845E-1,-4.6193913E-1,8.628203E-5,-1.4516333E0,9.139796E-1,1.6618171E0,1.3758163E0,-8.922361E-2,1.6654224E0,9.5493996E-1,-2.6449415E-1,-1.7136535E-1,1.0293283E0,-2.140493E0,-6.7027473E-1,-1.4241443E0,-6.3304824E-1,-4.611557E-1,-3.2619905E0,-2.9327875E-1,-1.4405628E-1,1.1673531E-1,-2.3576133E0,3.1739974E-1,-3.0493248E-1,4.865742E-2,-1.7849954E-2,1.6689874E0,-1.2890041E0,-3.4328395E-1,7.1484447E-1,-3.0401623E-1,1.6617954E0,-2.0796201E0,-4.622989E-1,-1.1184497E0,8.599918E-1,2.2220138E-2,5.22755E-1,-3.403697E-1,-1.9092794E-1,-3.1563401E0,4.8505316E0,1.6691082E0,2.9118705E-1,-3.403697E-1,-4.5012202E-2,4.1361415E-1,1.12812355E-1,5.4907817E-3,-2.4261951E0,1.1274922E0,3.3874062E-1,-6.0879495E-2,-1.526669E0,-8.4441566E-1,1.9511014E-1,2.495607E-1,-1.807179E-1,1.3241898E0,-3.0050677E-1,-7.841413E-2,2.8124323E-1,9.364339E-1,1.1793875E-1,-1.5756662E-1,5.007994E-1,9.0642905E-1,3.15032E-2,-2.5368595E-1,1.5637645E0,-4.7097003E-1,1.2494357E0,3.4140434E-2,1.0595095E0,-1.36715E-1,-2.3455201E-1,-1.1076224E0,8.699341E0,-2.5045555E0,3.0839634E-1,-2.1231742E0,1.5822505E0,1.1274922E0,-4.6227098E-1,-9.929697E-1,2.5310664E0,-4.7213864E-1,1.9593985E0,-2.428018E0,-2.557802E-1,2.2194226E0,1.3009569E-1,1.9820122E-2,1.7675366E0,-6.299256E-1,-1.1952801E0,1.9385957E0,1.05006045E-4,5.7912874E0,3.4492987E-1,9.674781E-1,-3.7611514E-2,-2.9127926E-1,1.2202152E-1,-3.7928814E-1,2.188757E-1,-4.1943115E-1,2.5337648E-1,4.592727E-2,5.462431E-1,-1.378884E-1,3.792238E-1,-5.153028E-1,1.3656537E-1,-5.3320616E-1,-2.4831653E0,-1.8443643E-1,4.7257936E-1,1.3258615E-1,1.8891566E-2,2.1629976E-1,7.690653E-1,2.5260153E-1,3.7364239E-1,6.6257733E-1,1.2186327E0,-1.2528525E-1,-4.905596E-1,1.8978435E-1,1.2612277E-1,-9.2459667E-1,1.923205E-1,-4.728737E-1,-4.8803505E-1,9.3020844E-1,-2.4429554E-1,1.7713493E0,-2.7964277E0,-5.163522E-1,-8.328074E-2,-4.421206E-1,1.4535472E-1,4.930066E-1,-3.7611514E-2,6.4808977E-1,9.71453E-3,8.359309E-2,9.107064E-1,-5.4384136E-1,1.2904059E-2,1.1633143E0,-1.8331363E0,-9.6232526E-2,-2.4367604E-1,8.823837E-2,-4.6635777E-1,-1.9280773E-1,-1.3405819E-1,2.3753014E0,1.9056313E0,-2.8914085E-1,1.0361188E-1,8.050161E-1,2.8995042E0,-1.6195545E-1,-4.85768E-1,4.3807107E-1,5.244231E-1,4.8447725E-1,2.5114727E0,-2.3644738E-1,-7.195357E-1,1.1482553E0,5.237408E0,-1.9403957E-1,-4.7228283E-1,-4.6621454E-1,1.1274922E0,-1.6843003E-1,2.4650612E0,-3.935519E-1,2.6725665E-1,2.3036333E-2,1.0103405E0,5.7182497E-1,-7.1165323E-1,1.6662071E0,-1.3689595E-1,3.879806E-2,-2.8698424E-1,-3.652298E-2,4.663387E-2,-2.4971128E-1,-1.0644473E-1,-2.8774676E-1,-3.6984092E-1,-1.9816796E-1,-8.254275E-2,-2.3335747E-1,-4.1383553E-2,-2.6530644E-1,-2.4269256E-1,-4.3464667E-1,-3.489123E-1,-2.469923E-1,-2.651656E-1,-1.1174625E-1,-2.0429789E-1,5.0320115E-2,-3.7536958E-1,-1.9736895E-1,-1.9829878E-1,4.8066108E-3,-4.2279708E-1,-3.5202497E-1,-3.6814088E-1,-2.2477519E-2,-3.140585E-1,-9.1038145E-2,-3.4821647E-1,-1.679003E-1,-1.1861803E-1,-3.079304E-1,-3.224926E-1,-1.8863441E-1,-1.7975733E-2,-2.2793694E-1,-3.7557247E-1,-3.2358035E-1,-1.2920007E-2,-2.8717893E-1,-5.3570718E-2,-3.4468898E-1,-4.2921525E-1,-2.680173E-1,-4.2454824E-1,-3.2396322E-1,5.892243E-2,-2.140012E-1,1.3373017E-1,-1.9126205E-1,-9.7953945E-2,-3.5590047E-1,-4.8140384E-2,-3.1136528E-1,-3.491555E-1,-2.5910997E-1,-1.9231658E-2,-3.0068332E-1,-1.00361004E-1,-3.2110277E-1,-3.478474E-1,-2.6030922E-1,-4.4120005E-1,-3.6862892E-1,-3.1122681E-1,-1.13577016E-1,-2.3223923E-1,-3.9210504E-1,-3.4797582E-1,-2.4089645E-1,-2.123211E-1,3.8691036E-2,-3.820751E-1,-1.6498749E-1,-4.237371E-1,-2.8533822E-1,-3.014262E-1,-1.4817303E-1,-4.073631E-1,-2.7813995E-1,-3.8231584E-1,-2.806566E-1,-2.984697E-1,-6.847544E-2,-3.5982883E-1,-2.0355591E-1,-3.6450416E-1,-2.3623955E-1,-3.0995938E-1,-1.0428573E-1,-3.7978655E-1,-2.5470084E-1,-4.267129E-1,-2.6280102E-1,-3.5234416E-1,-4.0937957E-1,-3.2751977E-1,-1.3004063E-1,-4.2560872E-1,-2.4344371E-1,-1.1873955E-1,-3.6181545E-1,-4.2714226E-1,-3.529933E-1,-3.5414413E-1,-2.2461729E-1,-4.3428132E-1,-2.7911836E-1,-4.1704404E-1,-3.3646336E-1,-3.872492E-1,-1.7209515E-1,-3.1052083E-1,-1.8164383E-2,-4.1403306E-1,-4.3943483E-1,-4.4258606E-1,-4.2563945E-1,-1.3548055E-1,-3.5050833E-1,-3.997401E-1,-2.9003403E-1],"split_indices":[27,26,26,25,27,27,26,27,154,26,25,384,9,27,25,351,50,11,0,50,84,375,26,350,26,384,4,384,373,25,375,375,3,26,284,375,69,264,50,252,43,41,26,50,255,9,330,169,312,46,390,0,260,113,169,389,390,0,273,257,350,25,452,0,0,27,6,31,0,0,382,0,0,255,66,0,0,258,431,0,0,367,6,205,310,25,0,0,4,366,26,0,26,22,452,9,324,229,9,225,25,0,131,25,0,350,37,25,161,321,312,1,48,397,236,27,388,0,273,58,0,258,247,48,84,0,327,26,0,169,66,44,0,13,11,7,31,273,0,236,367,377,330,273,304,382,240,0,202,25,52,0,379,0,11,397,206,158,0,427,6,0,336,26,0,0,0,9,367,0,169,46,0,262,29,266,309,402,255,46,321,350,0,16,183,350,0,388,9,452,0,320,42,262,348,26,273,70,50,0,0,0,0,0,0,0,0,0,0,0,0,0,0,0,0,0,0,0,0,0,0,0,0,0,0,0,0,0,0,0,0,0,0,0,0,0,0,0,0,0,0,0,0,0,0,0,0,0,0,0,0,0,0,0,0,0,0,0,0,0,0,0,0,0,0,0,0,0,0,0,0,0,0,0,0,0,0,0,0,0,0,0,0,0,0,0,0,0,0,0,0,0,0,0,0,0,0,0,0,0,0,0,0,0,0,0,0,0,0,0,0,0,0,0,0,0,0,0,0,0,0,0,0,0,0],"split_type":[0,0,0,0,0,0,0,0,0,0,0,0,0,0,0,0,0,0,0,0,0,0,0,0,0,0,0,0,0,0,0,0,0,0,0,0,0,0,0,0,0,0,0,0,0,0,0,0,0,0,0,0,0,0,0,0,0,0,0,0,0,0,0,0,0,0,0,0,0,0,0,0,0,0,0,0,0,0,0,0,0,0,0,0,0,0,0,0,0,0,0,0,0,0,0,0,0,0,0,0,0,0,0,0,0,0,0,0,0,0,0,0,0,0,0,0,0,0,0,0,0,0,0,0,0,0,0,0,0,0,0,0,0,0,0,0,0,0,0,0,0,0,0,0,0,0,0,0,0,0,0,0,0,0,0,0,0,0,0,0,0,0,0,0,0,0,0,0,0,0,0,0,0,0,0,0,0,0,0,0,0,0,0,0,0,0,0,0,0,0,0,0,0,0,0,0,0,0,0,0,0,0,0,0,0,0,0,0,0,0,0,0,0,0,0,0,0,0,0,0,0,0,0,0,0,0,0,0,0,0,0,0,0,0,0,0,0,0,0,0,0,0,0,0,0,0,0,0,0,0,0,0,0,0,0,0,0,0,0,0,0,0,0,0,0,0,0,0,0,0,0,0,0,0,0,0,0,0,0,0,0,0,0,0,0,0,0,0,0,0,0,0,0,0,0,0,0,0,0,0,0,0,0,0,0,0,0,0,0,0,0,0,0,0,0,0,0,0,0,0,0,0,0,0,0],"sum_hessian":[4.3638273E4,6.477252E3,3.716102E4,1.2817352E3,5.1955166E3,4.743829E3,3.2417191E4,1.1198102E3,1.6192497E2,1.4302982E3,3.7652183E3,2.6687146E3,2.0751145E3,1.2467673E4,1.9949518E4,3.1833868E2,8.0147156E2,1.4787949E2,1.404549E1,1.06285E3,3.674483E2,3.1269998E3,6.3821857E2,1.0109246E3,1.6577899E3,1.5095522E3,5.6556213E2,6.441167E3,6.026506E3,1.2875397E3,1.8661979E4,2.909672E2,2.737149E1,7.104713E2,9.100021E1,1.22617805E2,2.5261679E1,1.0325648E3,3.0285147E1,3.3818893E2,2.9259348E1,6.771718E2,2.449828E3,1.302082E2,5.080104E2,9.664014E2,4.452319E1,4.8836856E2,1.1694214E3,1.6696593E2,1.3425863E3,1.1010024E1,5.545521E2,1.1953248E3,5.2458423E3,1.2644117E3,4.762094E3,1.0175963E1,1.2773636E3,1.6039636E3,1.7058016E4,2.044976E2,8.6469574E1,1.6786236E1,1.0585255E1,1.2852902E2,5.819423E2,7.698104E1,1.4019174E1,1.2431098E1,1.1018671E2,1.4336322E1,1.0925357E1,9.456407E2,8.692413E1,1.702763E1,1.3257518E1,8.537813E1,2.528108E2,1.071643E1,1.854292E1,4.394012E2,2.3777061E2,5.785293E2,1.8712987E3,1.1759655E2,1.2611649E1,1.1755026E1,4.9625537E2,7.96764E2,1.6963745E2,1.194878E1,3.257441E1,3.8625073E2,1.0211781E2,1.0499108E3,1.19510574E2,1.3046255E2,3.650338E1,4.932853E2,8.49301E2,1.6529684E1,5.380224E2,1.1804541E3,1.4870802E1,4.826102E3,4.197402E2,9.175353E2,3.468764E2,1.5244629E3,3.2376313E3,1.0789807E3,1.9838298E2,8.281074E2,7.758562E2,1.613175E4,9.2626447E2,1.4755656E1,1.8974196E2,7.5408714E1,1.1060855E1,6.886649E1,5.966253E1,1.431719E2,4.387704E2,1.2519546E1,6.4461494E1,9.7674644E1,1.2512065E1,4.484976E2,4.9714307E2,7.61723E1,1.0751825E1,6.376582E1,2.161231E1,2.0988441E2,4.29264E1,4.2073535E2,1.8665838E1,1.0247165E2,1.3529897E2,4.78998E2,9.9531334E1,1.6845603E3,1.8673839E2,3.702483E1,8.057172E1,1.1044874E1,4.8521048E2,7.673262E2,2.9437817E1,1.4025324E1,1.5561214E2,1.1982701E1,2.059171E1,3.4491653E2,4.13342E1,8.5043976E1,1.7073843E1,8.158441E2,2.3406664E2,1.084059E1,1.0866999E2,1.15947235E2,1.4515321E1,1.9794529E1,1.6708853E1,4.7301233E2,2.0272984E1,1.3189441E1,8.361116E2,5.2131683E2,1.67056E1,1.0192444E3,1.6120967E2,4.683299E3,1.4280333E2,1.7677524E2,2.4296498E2,9.697015E1,8.205651E2,3.3609796E2,1.0778427E1,1.4568713E3,6.759147E1,3.2275703E3,1.0060825E1,6.1768915E2,4.6129156E2,1.7922725E2,1.9155733E1,4.4724863E2,3.8085883E2,5.055667E2,2.702895E2,7.7461187E3,8.385632E3,1.07190186E2,8.190743E2,1.1495718E2,7.478478E1,6.4108986E1,1.1299731E1,5.2788406E1,1.6078085E1,3.1425901E1,2.8236626E1,9.729167E1,4.5880238E1,8.646117E1,3.5230923E2,3.4421936E1,3.0039558E1,1.1512498E1,8.616215E1,2.2071669E2,2.2778091E2,3.60727E2,1.3641606E2,6.079504E1,1.5377266E1,4.613147E1,1.763435E1,1.0535267E1,1.1077043E1,1.1346266E2,9.6421745E1,3.269901E1,1.022739E1,4.0570486E2,1.5030492E1,6.7026955E1,3.5444695E1,1.0210869E2,3.3190285E1,4.256145E2,5.3383476E1,2.209037E1,7.744096E1,1.1592098E3,5.2535046E2,1.3787854E1,1.7295053E2,1.1129307E1,2.5895525E1,6.751768E1,1.3054039E1,4.4739035E2,3.7820133E1,1.9557377E1,7.477688E2,1.915707E1,1.0280746E1,1.0894839E1,1.447173E2,1.0179299E1,1.0412409E1,1.5265775E2,1.9225879E2,2.6286716E1,1.5047485E1,5.9433586E1,2.5610388E1,6.828828E2,1.3296135E2,1.1511209E2,1.1895455E2,8.316282E1,2.550717E1,5.805046E1,5.789677E1,3.6038083E2,1.12631485E2,1.0255509E1,1.0017474E1,8.179648E2,1.8146828E1,5.064733E2,1.4843529E1,9.531344E2,6.6109985E1,1.4009726E2,2.111241E1,4.545032E3,1.382662E2,1.3012706E2,1.2676269E1,4.402496E1,1.3275027E2,1.9551364E2,4.7451344E1,8.093762E1,1.603253E1,7.719757E2,4.858946E1,3.2568747E2,1.0410517E1,2.1926384E2,1.2376075E3,5.4634766E1,1.2956706E1,3.2157393E3,1.1831159E1,1.0852377E1,6.068368E2,3.4061185E2,1.206797E2,1.4858745E2,3.0639797E1,4.3694543E2,1.0303196E1,1.9455908E2,1.8629974E2,4.9009848E2,1.5468222E1,2.601203E2,1.0169179E1,5.7613467E3,1.9847719E3,6.6435044E3,1.7421274E3,2.0199856E1,8.6990326E1,7.5805164E2,6.1022663E1],"tree_param":{"num_deleted":"0","num_feature":"470","num_nodes":"325","size_leaf_vector":"0"}},{"base_weights":[-1.027722E0,-8.327317E-1,-1.1063097E0,-7.144637E-1,-1.0360241E0,-8.589049E-1,-1.1478509E0,-4.196622E-1,-7.840118E-1,-1.1316049E0,-9.6923876E-1,-8.0938965E-1,-1.0758998E0,-1.0857196E0,-1.2054781E0,-2.4130447E-1,-5.491852E-1,-5.3637964E-1,-8.40335E-1,-1.1438901E0,-6.692451E-1,-7.426002E-1,-1.0198945E0,-7.1352416E-1,-9.169446E-1,-1.0152713E0,-1.2868048E0,-9.59335E-1,-1.1283833E0,-1.1743816E0,-1.2521999E0,-1.6913535E-1,-8.192592E-1,2.5534728E-1,-5.801229E-1,-5.88955E-1,4.716419E-2,-7.016077E-1,-9.232881E-1,-1.1553522E0,-8.421341E-1,-8.540704E-1,-6.1814252E-2,-4.419282E-1,-8.436925E-1,-1.1221086E0,-9.605292E-1,-7.4175334E-1,-2.9099458E-1,-9.8991567E-1,-7.7361506E-1,-1.0505685E0,-7.0542616E-1,-9.4213325E-1,-1.3253648E0,-9.018175E-1,-1.106186E0,-1.1008064E0,-1.2351836E0,-1.0983576E0,-1.2030375E0,-1.2200501E0,-1.2817291E0,-5.0534123E-1,-7.407319E-2,-3.681311E-1,-1.0302055E0,-3.0829054E-1,8.581043E-1,-2.5907958E-1,-6.326919E-1,-3.7168175E-1,-7.242798E-1,-5.382503E-1,2.7073094E-1,-7.32799E-1,-1.8195577E-1,-7.8542E-1,-9.991349E-1,-7.418783E-1,-1.162644E0,-2.0419098E-1,-1.0528747E0,-1.0545012E0,-3.254209E-1,-3.057513E-1,-9.9045753E-1,-8.9901525E-1,-2.7265665E-1,-5.2690196E-1,-1.134192E0,-8.3322483E-1,-1.0207721E0,-6.6958785E-1,-9.2134374E-1,-8.8121885E-1,-1.0265987E-1,-1.179188E0,-9.473599E-1,-6.2760276E-1,-9.694436E-1,-6.8946826E-1,-1.08574E0,-3.1223136E-1,-9.509629E-1,-4.8981756E-1,-9.255146E-1,-1.1208872E0,-7.500813E-1,-1.1163218E0,-9.0064836E-1,-1.2617013E0,-1.1129255E0,-8.1045485E-1,-1.1130716E0,-1.2087282E0,-9.716497E-1,-1.2225951E0,-6.604102E-1,-1.289968E0,-1.1290234E0,1.7804673E-1,-6.03493E-1,-1.3741057E-1,4.4528547E-1,-7.086604E-1,1.1824504E-2,-5.7890433E-1,-1.183787E0,-3.666836E-1,5.7391065E-1,-6.940958E-1,-2.57908E-1,2.8216732E-1,-4.2688236E-1,-7.704314E-1,-3.4363553E-2,-9.973805E-2,-1.0225981E0,6.46584E-1,-2.295555E-1,-9.7576624E-1,-6.77569E-1,-6.22696E-2,-1.0746827E0,-7.151815E-1,-9.4342417E-1,-1.0600654E0,-8.127149E-1,-1.0207069E0,-2.5348604E-1,-1.0421039E0,-1.1884633E0,-4.779935E-1,-1.2179183E0,-6.349553E-1,-1.3593111E0,5.5108104E-2,-5.4704475E-1,-6.2400585E-1,-1.2901005E0,-1.682878E-1,-9.292181E-1,8.399305E-2,-7.518271E-1,-1.1589425E0,-8.2765853E-1,-8.561488E-1,-3.957959E-2,-4.5528254E-1,-1.0368221E0,-8.837442E-1,-5.983008E-1,-6.407204E-1,-9.802646E-1,-5.501847E-1,-1.1962488E0,6.7377055E-1,-2.5140962E-1,-5.351188E-1,-1.2148838E0,-9.6158546E-1,-2.4274074E-1,-7.143285E-1,-1.8218704E-2,-1.036466E0,-4.2184234E-1,-9.159102E-1,-1.9301136E-1,-1.1013874E0,-5.4486597E-1,-7.4184877E-1,8.341409E-2,-3.643346E-1,-1.1646183E0,-6.129627E-1,1.5291116E-1,-8.957576E-1,-1.1803536E0,-1.1293478E0,-5.8707094E-1,-1.1316806E0,-4.322169E-1,-1.0239629E0,-1.1457486E0,-5.8265746E-1,-9.6373534E-1,-1.2670263E0,-8.382453E-1,-8.944433E-1,-1.1809875E0,-9.130979E-1,8.114116E-2,-1.1497473E0,-1.0101999E0,-1.1546807E0,-1.2336315E0,-1.0285912E0,-3.38539E-1,-1.224919E0,-6.226034E-1,-1.2927248E0,-9.104447E-1,-1.1770946E0,-5.8205694E-1,-2.3732986E-1,-8.713239E-1,-4.6505737E-1,-4.281442E-2,7.893379E-1,-2.5560403E-1,-8.921349E-1,-1.4470121E0,-6.16292E-1,2.0382252E-1,-7.237083E-1,-1.04306E-1,1.4874496E-1,-5.199539E-1,-2.5032157E-1,9.1503733E-1,-1.7539501E-2,-5.174073E-1,-1.0050693E0,-6.638242E-1,-4.2318228E-1,7.733587E-1,1.1871811E0,2.9041967E-1,3.8828823E-1,-6.416098E-1,-1.1257794E0,-7.051827E-1,-7.0932335E-1,-1.6707373E-1,-2.2819276E-1,7.111619E-1,-7.7864677E-1,-4.6632993E-1,-1.7659463E-1,-9.751904E-1,-1.0850405E0,-7.7850837E-1,-8.606014E-1,-7.140115E-2,-1.1012897E0,-8.211149E-1,-1.077007E0,-1.2212354E0,-1.3262718E0,-8.5431844E-1,4.7950208E-1,-4.3879616E-1,-1.0136738E0,-2.817569E-1,-2.4853131E-1,-9.567489E-1,-9.965847E-1,-1.2004284E0,-5.103448E-1,-1.1885862E0,1.0914512E-2,-8.7880677E-1,3.480183E-2,-9.220327E-1,-1.0529027E0,-3.9693055E-1,-9.9843603E-1,-6.0953325E-1,-5.134312E-1,-8.404873E-1,2.2187732E-1,-7.8434986E-1,-1.0045836E0,-2.0772855E-1,-6.070878E-1,1.5135036E-2,-1.2662411E0,-7.4215686E-1,-1.0853593E0,-8.830821E-1,-7.675548E-1,1.0879255E-1,8.6214E-1,-4.74006E-1,-1.0883648E0,-5.894043E-1,-8.854426E-1,1.2914123E-1,-5.4509497E-1,-1.0960091E0,-1.0547734E0,-1.3048803E0,-1.3442743E0,-8.624667E-1,-7.049215E-1,7.417081E-2,-9.131391E-1,-4.79252E-1,-1.2254256E0,-7.613506E-1,-7.3105663E-1,-1.14102E0,-1.0435965E0,-7.370809E-1,-1.1832589E0,-1.056497E0,-7.1180296E-1,2.8638795E-1,-9.8855704E-1,6.9218115E-3,-1.2713771E0,-8.3101505E-1,-3.745366E-1,-1.0709784E0,-1.2075692E0,-7.291173E-1,-7.7386284E-1,-1.2899224E0,-1.1547993E0,-5.429699E-1,-1.0282196E0,-2.5554407E-1,-6.492391E-1,-1.1618718E0,-1.2351909E0,-6.4275575E-1,-6.663573E-1,-1.1492413E0,-1.2272658E0,-6.3061666E-1,-1.2945249E0,-8.257348E-1,-1.2202437E0,-6.409849E-1],"categories":[],"categories_nodes":[],"categories_segments":[],"categories_sizes":[],"default_left":[1,1,1,1,1,1,1,1,1,1,1,1,1,1,1,1,1,1,1,1,1,1,1,1,1,1,1,1,1,1,1,1,1,1,1,1,1,1,1,1,1,1,0,1,1,1,1,1,1,1,1,1,1,0,0,1,1,1,1,1,1,1,1,1,1,1,1,0,0,1,1,1,1,1,1,1,1,1,1,1,1,0,1,1,0,1,1,1,1,0,1,1,1,1,1,1,1,1,1,1,1,1,1,1,1,1,1,1,1,1,1,1,1,1,1,1,1,1,0,1,1,0,1,1,1,0,0,0,1,1,0,1,1,1,1,1,1,0,0,1,1,1,1,1,0,1,1,1,1,0,0,1,1,0,1,0,0,1,1,0,0,0,1,0,0,1,1,1,0,1,1,1,1,1,1,0,0,0,1,0,1,1,0,1,1,1,1,1,0,1,0,0,0,0,1,1,0,1,1,1,0,0,0,1,1,1,1,1,0,1,1,1,0,1,1,1,1,1,0,1,0,1,0,1,0,0,0,0,0,0,0,0,0,0,0,0,0,0,0,0,0,0,0,0,0,0,0,0,0,0,0,0,0,0,0,0,0,0,0,0,0,0,0,0,0,0,0,0,0,0,0,0,0,0,0,0,0,0,0,0,0,0,0,0,0,0,0,0,0,0,0,0,0,0,0,0,0,0,0,0,0,0,0,0,0,0,0,0,0,0,0,0,0,0,0,0,0,0,0,0,0,0,0,0,0,0,0,0,0,0,0,0,0,0,0,0,0,0,0,0,0,0,0,0,0,0,0,0,0,0,0,0,0,0,0],"id":2,"left_children":[1,3,5,7,9,11,13,15,17,19,21,23,25,27,29,31,33,35,37,39,41,43,45,47,49,51,53,55,57,59,61,63,65,67,69,71,73,75,77,79,81,83,-1,85,87,89,91,93,95,97,99,101,103,-1,-1,105,107,109,111,113,115,117,119,121,123,125,127,-1,-1,129,131,133,135,137,139,141,143,145,147,149,151,-1,153,155,-1,157,159,161,163,-1,165,167,169,171,173,175,177,179,181,183,185,187,189,191,193,195,197,199,201,203,205,207,209,211,213,215,217,219,-1,221,223,-1,225,227,229,-1,-1,-1,231,233,-1,235,237,239,241,243,245,-1,-1,247,249,251,253,255,-1,257,259,261,263,-1,-1,265,267,-1,269,-1,-1,271,273,-1,-1,-1,275,-1,-1,277,279,281,-1,283,285,287,289,291,293,-1,-1,-1,295,-1,297,299,-1,301,303,305,307,309,-1,311,-1,-1,-1,-1,313,315,-1,317,319,321,-1,-1,-1,323,325,327,329,331,-1,333,335,337,-1,339,341,343,345,347,-1,349,-1,351,-1,353,-1,-1,-1,-1,-1,-1,-1,-1,-1,-1,-1,-1,-1,-1,-1,-1,-1,-1,-1,-1,-1,-1,-1,-1,-1,-1,-1,-1,-1,-1,-1,-1,-1,-1,-1,-1,-1,-1,-1,-1,-1,-1,-1,-1,-1,-1,-1,-1,-1,-1,-1,-1,-1,-1,-1,-1,-1,-1,-1,-1,-1,-1,-1,-1,-1,-1,-1,-1,-1,-1,-1,-1,-1,-1,-1,-1,-1,-1,-1,-1,-1,-1,-1,-1,-1,-1,-1,-1,-1,-1,-1,-1,-1,-1,-1,-1,-1,-1,-1,-1,-1,-1,-1,-1,-1,-1,-1,-1,-1,-1,-1,-1,-1,-1,-1,-1,-1,-1,-1,-1,-1,-1,-1,-1,-1,-1,-1,-1,-1,-1,-1],"loss_changes":[5.877422E2,2.646714E2,2.803789E2,1.4282544E2,2.4806152E1,4.1461426E1,8.2609375E1,3.0706223E1,7.832764E1,8.6813965E0,2.674707E1,3.2463135E1,8.014587E0,5.9783203E1,1.6183594E1,2.3360184E1,1.9377213E1,3.2223083E1,5.228662E1,4.6257324E0,5.050598E0,1.304158E1,1.07873535E1,2.0093994E1,1.5028931E1,5.5029907E0,8.6483765E-1,2.3122314E1,2.3480469E1,1.4606445E1,3.0317383E0,1.6009851E1,5.547497E0,1.0219542E1,1.2396683E1,2.8037476E1,1.1618345E1,2.7833557E1,2.9283203E1,3.8310547E0,8.244526E0,3.3414516E0,0E0,8.148926E0,1.01540985E1,4.5267334E0,8.689331E0,2.0060852E1,1.1946142E1,6.9143066E0,1.4089905E1,5.7349854E0,5.633993E0,0E0,0E0,1.9632446E1,3.3433838E0,1.9838867E1,4.18042E0,7.624756E0,5.8046875E0,2.522705E0,1.6928711E0,7.5195217E0,1.2975525E1,2.7771275E0,2.2174835E0,0E0,0E0,9.748534E0,1.4522629E1,1.3530552E1,1.8829132E1,5.114259E0,1.2201155E1,2.1177185E1,1.0514407E1,1.0702393E1,2.016626E1,3.7913551E0,3.5170898E0,0E0,3.8827705E0,2.3042965E0,0E0,8.048754E0,1.616888E0,6.457382E0,5.2771845E0,0E0,4.3321533E0,7.3346252E0,7.151001E0,1.6902496E1,6.8898315E0,2.0597115E0,9.780828E0,3.464096E0,7.977661E0,1.5699875E1,7.553833E0,5.2249393E0,3.3222046E0,4.329006E0,4.254265E0,9.1182E0,1.36866455E1,2.7945557E0,3.7211742E0,1.5745605E1,9.229126E0,2.112793E0,3.635437E0,9.36779E0,6.053955E0,5.5302734E0,4.421303E0,2.480957E0,0E0,1.3005371E0,2.8948822E0,0E0,9.291573E0,1.0849269E1,1.0549133E1,0E0,0E0,0E0,1.0344162E0,1.3632432E1,0E0,9.500916E0,9.830161E0,1.0179653E1,1.2701656E1,1.3215912E1,1.2317012E1,0E0,0E0,6.7528934E0,7.4374704E0,1.1348694E1,2.1429382E1,1.1504935E1,0E0,1.091037E1,7.436249E0,8.943481E0,1.6279144E1,0E0,0E0,2.7275696E0,3.2554932E0,0E0,2.8191757E-1,0E0,0E0,8.135934E0,6.5575294E0,0E0,0E0,0E0,5.150955E0,0E0,0E0,3.133545E0,5.7616463E0,7.742035E0,0E0,5.7424545E0,7.9782104E0,8.293503E0,1.7239716E1,1.0307041E1,6.815796E0,0E0,0E0,0E0,6.6993737E0,0E0,3.157547E0,6.840332E0,0E0,1.1485382E1,1.5683512E1,3.843521E0,6.6098647E0,1.5885086E0,0E0,2.886963E0,0E0,0E0,0E0,0E0,3.0121994E-1,6.111088E0,0E0,1.2196289E1,2.8468323E0,2.6643066E0,0E0,0E0,0E0,7.7558594E0,1.4526855E1,9.555571E0,9.781952E0,1.5776367E0,0E0,6.8555107E0,1.9716187E0,3.7841644E0,0E0,3.6724854E0,6.684143E0,5.227539E0,2.4526367E0,4.5177E0,0E0,2.4570312E0,0E0,9.0527344E-1,0E0,2.0904388E0,0E0,0E0,0E0,0E0,0E0,0E0,0E0,0E0,0E0,0E0,0E0,0E0,0E0,0E0,0E0,0E0,0E0,0E0,0E0,0E0,0E0,0E0,0E0,0E0,0E0,0E0,0E0,0E0,0E0,0E0,0E0,0E0,0E0,0E0,0E0,0E0,0E0,0E0,0E0,0E0,0E0,0E0,0E0,0E0,0E0,0E0,0E0,0E0,0E0,0E0,0E0,0E0,0E0,0E0,0E0,0E0,0E0,0E0,0E0,0E0,0E0,0E0,0E0,0E0,0E0,0E0,0E0,0E0,0E0,0E0,0E0,0E0,0E0,0E0,0E0,0E0,0E0,0E0,0E0,0E0,0E0,0E0,0E0,0E0,0E0,0E0,0E0,0E0,0E0,0E0,0E0,0E0,0E0,0E0,0E0,0E0,0E0,0E0,0E0,0E0,0E0,0E0,0E0,0E0,0E0,0E0,0E0,0E0,0E0,0E0,0E0,0E0,0E0,0E0,0E0,0E0,0E0,0E0,0E0,0E0,0E0,0E0,0E0,0E0,0E0,0E0,0E0,0E0,0E0,0E0,0E0],"parents":[2147483647,0,0,1,1,2,2,3,3,4,4,5,5,6,6,7,7,8,8,9,9,10,10,11,11,12,12,13,13,14,14,15,15,16,16,17,17,18,18,19,19,20,20,21,21,22,22,23,23,24,24,25,25,26,26,27,27,28,28,29,29,30,30,31,31,32,32,33,33,34,34,35,35,36,36,37,37,38,38,39,39,40,40,41,41,43,43,44,44,45,45,46,46,47,47,48,48,49,49,50,50,51,51,52,52,55,55,56,56,57,57,58,58,59,59,60,60,61,61,62,62,63,63,64,64,65,65,66,66,69,69,70,70,71,71,72,72,73,73,74,74,75,75,76,76,77,77,78,78,79,79,80,80,82,82,83,83,85,85,86,86,87,87,88,88,90,90,91,91,92,92,93,93,94,94,95,95,96,96,97,97,98,98,99,99,100,100,101,101,102,102,103,103,104,104,105,105,106,106,107,107,108,108,109,109,110,110,111,111,112,112,113,113,114,114,115,115,116,116,117,117,119,119,120,120,122,122,123,123,124,124,128,128,129,129,131,131,132,132,133,133,134,134,135,135,136,136,139,139,140,140,141,141,142,142,143,143,145,145,146,146,147,147,148,148,151,151,152,152,154,154,157,157,158,158,162,162,165,165,166,166,167,167,169,169,170,170,171,171,172,172,173,173,174,174,178,178,180,180,181,181,183,183,184,184,185,185,186,186,187,187,189,189,194,194,195,195,197,197,198,198,199,199,203,203,204,204,205,205,206,206,207,207,209,209,210,210,211,211,213,213,214,214,215,215,216,216,217,217,219,219,221,221,223,223],"right_children":[2,4,6,8,10,12,14,16,18,20,22,24,26,28,30,32,34,36,38,40,42,44,46,48,50,52,54,56,58,60,62,64,66,68,70,72,74,76,78,80,82,84,-1,86,88,90,92,94,96,98,100,102,104,-1,-1,106,108,110,112,114,116,118,120,122,124,126,128,-1,-1,130,132,134,136,138,140,142,144,146,148,150,152,-1,154,156,-1,158,160,162,164,-1,166,168,170,172,174,176,178,180,182,184,186,188,190,192,194,196,198,200,202,204,206,208,210,212,214,216,218,220,-1,222,224,-1,226,228,230,-1,-1,-1,232,234,-1,236,238,240,242,244,246,-1,-1,248,250,252,254,256,-1,258,260,262,264,-1,-1,266,268,-1,270,-1,-1,272,274,-1,-1,-1,276,-1,-1,278,280,282,-1,284,286,288,290,292,294,-1,-1,-1,296,-1,298,300,-1,302,304,306,308,310,-1,312,-1,-1,-1,-1,314,316,-1,318,320,322,-1,-1,-1,324,326,328,330,332,-1,334,336,338,-1,340,342,344,346,348,-1,350,-1,352,-1,354,-1,-1,-1,-1,-1,-1,-1,-1,-1,-1,-1,-1,-1,-1,-1,-1,-1,-1,-1,-1,-1,-1,-1,-1,-1,-1,-1,-1,-1,-1,-1,-1,-1,-1,-1,-1,-1,-1,-1,-1,-1,-1,-1,-1,-1,-1,-1,-1,-1,-1,-1,-1,-1,-1,-1,-1,-1,-1,-1,-1,-1,-1,-1,-1,-1,-1,-1,-1,-1,-1,-1,-1,-1,-1,-1,-1,-1,-1,-1,-1,-1,-1,-1,-1,-1,-1,-1,-1,-1,-1,-1,-1,-1,-1,-1,-1,-1,-1,-1,-1,-1,-1,-1,-1,-1,-1,-1,-1,-1,-1,-1,-1,-1,-1,-1,-1,-1,-1,-1,-1,-1,-1,-1,-1,-1,-1,-1,-1,-1,-1,-1],"split_conditions":[-5.1523745E-1,8.628203E-5,-1.1279166E0,-1.526669E0,-4.470907E-1,3.5703778E-1,8.628203E-5,-1.6002753E0,-2.0567448E0,7.7855736E-1,-1.9155807E0,-1.6599056E0,1.6332407E-1,-5.762147E-1,7.4196583E-1,1.826786E-2,-7.4096924E-1,5.707211E-2,-5.154509E-1,1.643486E-2,1.5539345E0,-2.4937743E-1,-4.7775188E-1,1.6562755E0,1.7894828E-1,1.5524119E0,-1.0602778E0,8.1101346E-1,3.2494217E-1,-3.884834E-1,-1.10956684E-1,-4.8317152E-1,-5.7678455E-1,-7.4209297E-1,-1.7001233E0,-3.403697E-1,-8.06906E-1,2.2598326E0,-3.403697E-1,-9.9354076E-1,-6.4322755E-2,2.0281863E0,-1.8544277E-2,9.241668E-1,1.6585262E0,-5.5037177E-1,-4.4019374E-1,7.405589E-1,-6.2921333E-1,-9.429594E-1,5.869967E-1,-7.2568595E-1,-1.855057E0,-2.8263998E-1,-3.9760947E-1,-2.10883E0,3.9703313E-1,4.1746363E-2,1.1742527E0,-1.8456327E0,9.0274453E-1,6.521369E0,2.498299E0,-2.1633527E-1,1.5407223E0,2.8494197E-1,-4.8317152E-1,-9.2487164E-2,2.574313E-1,1.2698572E0,1.8725114E0,-1.7638428E0,1.655566E0,-1.84338E-1,-3.381134E-2,-8.554525E-1,6.576887E-2,1.3378109E-1,7.313951E-1,1.1846126E0,3.672245E-1,-6.12573E-2,-1.2388994E0,2.1921298E-1,-9.762627E-2,-3.403697E-1,-1.2426376E-2,-2.6386242E0,-7.7893496E-2,-1.580706E-1,1.4520655E0,1.3769504E0,-1.7373827E0,-3.095963E-1,-1.5899398E0,3.3655778E-1,-2.4372768E0,-3.6360723E-1,3.329102E0,1.6617517E0,7.184147E-1,6.998474E-1,2.5086951E0,-4.688599E-1,-3.3241948E-1,1.4804554E0,9.898041E-1,2.9012423E0,7.2069377E-1,9.038202E-2,-3.1643808E-1,1.4483458E0,-7.1296334E-1,1.7771015E-1,3.3552957E-1,-3.403697E-1,1.2003664E0,1.67202E0,-1.9812308E-1,4.538496E0,-7.382673E-2,5.341402E-2,-5.016753E-2,-4.85768E-1,-3.9238614E-1,-2.1259813E-1,3.547351E-3,-1.736713E-1,5.158496E-1,8.4623945E-1,1.721732E-1,1.9395959E0,-3.069021E-1,2.4479856E0,-2.5607483E0,-4.491514E-1,5.235327E-2,-2.9921414E-2,-3.0677944E-1,-8.629428E-1,-1.1807238E0,3.7798774E-1,3.5452537E-2,1.1353321E0,-3.2240483E-1,1.99548E-1,-4.5575702E-1,1.5822505E0,1.7088621E0,-3.0621207E-1,-7.604581E-2,8.965769E-1,-3.403697E-1,-1.4339805E-1,-8.7010634E-1,-1.904866E-1,-4.0779334E-1,7.4130726E-1,1.5568894E-1,-1.8720177E-1,-3.8703015E-1,-5.048634E-2,-8.299634E-1,2.5197916E-2,-2.2554815E-1,3.4698474E-1,2.7818826E-1,-2.6323662E0,-1.1873878E-2,8.69909E-1,2.5027456E0,5.99675E-1,6.2338793E-1,-4.6309882E-1,2.5518446E0,-1.6505542E-1,-3.5887465E-1,2.0213117E-1,-3.8229316E-1,-1.6053565E-1,8.589741E-1,3.5043564E-2,-7.282222E-2,1.5625756E-2,2.7633752E-3,-5.174528E-4,1.0175989E0,-6.2045217E-1,-5.790341E-2,6.520852E-1,-1.634598E-1,-2.2255464E-1,2.502423E-2,-1.0930039E-1,-3.9959598E-1,6.6408354E-1,4.5873348E-2,1.3654941E-2,1.8235096E0,-5.609497E-1,-1.761213E-1,-3.3950418E-1,-1.2966508E-1,2.0667152E0,5.411365E-1,2.977438E0,-1.3716197E-1,5.1965146E0,-2.514736E-1,4.0538466E-1,1.7769239E0,3.558362E-1,2.4342349E-2,4.0472717E0,6.499525E0,-2.651157E0,5.4511013E0,-7.778251E-1,-1.015617E-1,4.14876E0,-1.8678103E-1,6.2457714E0,-2.7313343E-1,7.4840117E-1,-1.7461708E-1,-7.119896E-2,-2.6139718E-1,-1.3951722E-1,-1.2844326E-2,2.3680137E-1,-7.668121E-2,-2.6764047E-1,-4.3410364E-1,-1.848876E-1,6.114676E-2,-2.171125E-1,-3.12918E-2,4.4623487E-2,-1.5598617E-1,-7.509647E-2,2.7451122E-1,-5.2618505E-3,-1.5522219E-1,-3.015208E-1,-1.9914727E-1,-1.2695469E-1,2.3200762E-1,3.5615435E-1,8.7125905E-2,1.16486475E-1,-1.9248295E-1,-3.3773383E-1,-2.1155481E-1,-2.1279702E-1,-5.012212E-2,-6.8457834E-2,2.1334858E-1,-2.3359405E-1,-1.3989899E-1,-5.2978393E-2,-2.9255712E-1,-3.2551214E-1,-2.3355252E-1,-2.5818044E-1,-2.1420345E-2,-3.3038694E-1,-2.4633448E-1,-3.2310212E-1,-3.6637062E-1,-3.9788154E-1,-2.5629553E-1,1.4385062E-1,-1.3163885E-1,-3.0410215E-1,-8.4527075E-2,-7.45594E-2,-2.8702468E-1,-2.9897544E-1,-3.6012852E-1,-1.5310344E-1,-3.5657588E-1,3.2743537E-3,-2.6364204E-1,1.0440549E-2,-2.7660984E-1,-3.1587082E-1,-1.19079165E-1,-2.9953083E-1,-1.8285999E-1,-1.5402937E-1,-2.521462E-1,6.65632E-2,-2.3530497E-1,-3.013751E-1,-6.2318567E-2,-1.8212634E-1,4.540511E-3,-3.7987235E-1,-2.2264707E-1,-3.256078E-1,-2.6492465E-1,-2.3026645E-1,3.2637767E-2,2.5864202E-1,-1.4220181E-1,-3.2650948E-1,-1.7682129E-1,-2.656328E-1,3.874237E-2,-1.635285E-1,-3.2880276E-1,-3.1643206E-1,-3.9146408E-1,-4.032823E-1,-2.5874E-1,-2.1147646E-1,2.2251245E-2,-2.7394176E-1,-1.4377561E-1,-3.6762768E-1,-2.2840518E-1,-2.19317E-1,-3.4230602E-1,-3.1307897E-1,-2.2112428E-1,-3.5497767E-1,-3.169491E-1,-2.135409E-1,8.5916385E-2,-2.965671E-1,2.0765436E-3,-3.8141313E-1,-2.4930452E-1,-1.12360984E-1,-3.2129353E-1,-3.6227077E-1,-2.1873519E-1,-2.3215885E-1,-3.8697672E-1,-3.464398E-1,-1.6289097E-1,-3.084659E-1,-7.6663226E-2,-1.9477175E-1,-3.4856156E-1,-3.7055728E-1,-1.9282673E-1,-1.999072E-1,-3.447724E-1,-3.6817977E-1,-1.8918501E-1,-3.883575E-1,-2.4772045E-1,-3.6607313E-1,-1.9229548E-1],"split_indices":[26,27,27,27,8,25,27,26,26,350,26,27,76,384,26,25,384,350,384,270,272,375,9,269,67,218,69,26,25,373,373,32,384,384,25,390,348,169,390,273,271,353,0,69,50,382,388,26,78,6,26,355,27,0,0,25,350,350,273,25,352,155,267,355,11,258,32,0,0,10,130,252,154,187,207,8,74,60,272,31,27,0,10,326,0,390,72,26,244,0,272,10,252,8,252,42,27,26,154,50,350,169,347,246,45,11,25,3,231,26,389,107,86,75,356,390,187,50,0,155,271,0,73,402,385,0,0,0,31,185,0,269,75,169,26,8,68,0,0,328,315,48,270,119,0,382,388,22,321,0,0,272,390,0,8,0,0,27,256,0,0,0,82,0,0,27,384,25,0,203,350,10,399,388,52,0,0,0,8,0,170,31,0,270,156,270,216,38,0,62,0,0,0,0,275,26,0,285,231,380,0,0,0,169,67,182,309,168,0,202,405,169,0,58,155,25,112,276,0,343,0,74,0,119,0,0,0,0,0,0,0,0,0,0,0,0,0,0,0,0,0,0,0,0,0,0,0,0,0,0,0,0,0,0,0,0,0,0,0,0,0,0,0,0,0,0,0,0,0,0,0,0,0,0,0,0,0,0,0,0,0,0,0,0,0,0,0,0,0,0,0,0,0,0,0,0,0,0,0,0,0,0,0,0,0,0,0,0,0,0,0,0,0,0,0,0,0,0,0,0,0,0,0,0,0,0,0,0,0,0,0,0,0,0,0,0,0,0,0,0,0,0,0,0,0,0,0,0,0,0,0,0,0,0,0],"split_type":[0,0,0,0,0,0,0,0,0,0,0,0,0,0,0,0,0,0,0,0,0,0,0,0,0,0,0,0,0,0,0,0,0,0,0,0,0,0,0,0,0,0,0,0,0,0,0,0,0,0,0,0,0,0,0,0,0,0,0,0,0,0,0,0,0,0,0,0,0,0,0,0,0,0,0,0,0,0,0,0,0,0,0,0,0,0,0,0,0,0,0,0,0,0,0,0,0,0,0,0,0,0,0,0,0,0,0,0,0,0,0,0,0,0,0,0,0,0,0,0,0,0,0,0,0,0,0,0,0,0,0,0,0,0,0,0,0,0,0,0,0,0,0,0,0,0,0,0,0,0,0,0,0,0,0,0,0,0,0,0,0,0,0,0,0,0,0,0,0,0,0,0,0,0,0,0,0,0,0,0,0,0,0,0,0,0,0,0,0,0,0,0,0,0,0,0,0,0,0,0,0,0,0,0,0,0,0,0,0,0,0,0,0,0,0,0,0,0,0,0,0,0,0,0,0,0,0,0,0,0,0,0,0,0,0,0,0,0,0,0,0,0,0,0,0,0,0,0,0,0,0,0,0,0,0,0,0,0,0,0,0,0,0,0,0,0,0,0,0,0,0,0,0,0,0,0,0,0,0,0,0,0,0,0,0,0,0,0,0,0,0,0,0,0,0,0,0,0,0,0,0,0,0,0,0,0,0,0,0,0,0,0,0,0,0,0,0,0,0,0,0,0,0,0,0,0,0,0,0,0,0,0,0,0,0,0,0,0,0,0,0,0,0,0,0,0,0,0,0,0,0,0,0,0,0],"sum_hessian":[3.841385E4,1.1038042E4,2.737581E4,6.981171E3,4.0568708E3,3.9388838E3,2.3436928E4,1.3339276E3,5.647243E3,1.6621377E3,2.3947332E3,3.2109253E3,7.2795844E2,1.1287271E4,1.2149655E4,5.6237744E2,7.7155023E2,1.0483893E3,4.598854E3,1.6176807E3,4.445699E1,4.4032764E2,1.9544055E3,1.7017562E3,1.5091692E3,5.699343E2,1.5802412E2,2.8545608E3,8.432711E3,7.3103047E3,4.839351E3,5.0109805E2,6.12794E1,2.8302097E1,7.432481E2,9.617312E2,8.66581E1,1.7244369E3,2.874417E3,1.5557568E3,6.1923855E1,3.3774315E1,1.0682676E1,1.121472E2,3.2818042E2,7.1148395E2,1.2429216E3,1.5944741E3,1.07282104E2,9.961228E2,5.130464E2,5.0950192E2,6.043242E1,1.845909E1,1.3956503E2,2.056303E3,7.9825757E2,6.7111406E3,1.7215701E3,2.0119473E3,5.2983574E3,2.3371255E3,2.5022253E3,1.0950308E2,3.9159497E2,2.0399126E1,4.0880272E1,1.4878112E1,1.3423985E1,1.05412605E2,6.378355E2,3.7054404E2,5.911872E2,2.355949E1,6.309861E1,1.6264044E3,9.8032455E1,1.0241523E3,1.8502646E3,2.8741215E1,1.5270156E3,1.5865513E1,4.6058342E1,2.3768194E1,1.0006118E1,9.1090614E1,2.1056593E1,2.9867044E2,2.9509993E1,1.50441265E1,6.964398E2,4.0400824E2,8.389134E2,1.1407935E3,4.536807E2,2.5061762E1,8.2220345E1,1.7795145E2,8.181713E2,2.9631494E2,2.1673143E2,4.705004E1,4.6245187E2,2.4104256E1,3.6328163E1,1.1301889E2,1.9432842E3,7.645468E2,3.3710785E1,6.2240977E3,4.8704303E2,1.4070588E3,3.1451126E2,1.00552505E2,1.9113948E3,5.167055E3,1.3130186E2,2.3253657E3,1.1759751E1,2.367068E3,1.351573E2,1.3650007E1,9.585308E1,3.496852E2,4.190975E1,1.0301475E1,1.00976515E1,1.1590578E1,2.9289696E1,9.384916E1,1.1563448E1,5.473128E2,9.052272E1,2.852733E1,3.420167E2,5.540103E2,3.717689E1,1.2997714E1,1.0561775E1,3.5863106E1,2.7235504E1,2.981442E2,1.3282601E3,8.738647E1,1.0645984E1,7.1280945E2,3.1134293E2,1.3909525E3,4.5931223E2,1.7602066E1,1.1139149E1,2.766778E2,1.2503378E3,1.114258E1,3.491576E1,1.1299069E1,1.2469126E1,3.681084E1,5.427977E1,1.0858979E1,1.0197614E1,1.2115687E1,2.8655475E2,1.7390696E1,1.2119297E1,6.4183527E2,5.4604546E1,3.9258978E2,1.14184675E1,2.3963686E1,8.149497E2,2.8205722E2,8.587362E2,8.078746E1,3.7289325E2,1.3559676E1,1.1502087E1,1.2651844E1,6.9568504E1,1.0184299E1,1.6776715E2,8.016227E2,1.6548626E1,2.5924738E2,3.7067566E1,1.923023E2,2.4429125E1,3.173178E1,1.5318264E1,4.4844223E2,1.4009654E1,1.1136496E1,1.296776E1,1.0420926E1,2.5907236E1,9.488541E1,1.8133488E1,1.7441399E3,1.9914426E2,7.5152014E2,1.3026635E1,1.4156048E1,1.9554737E1,1.5125645E3,4.711533E3,8.2323906E1,4.0471912E2,1.3876177E3,1.9441208E1,7.806396E1,2.364473E2,9.0150055E1,1.040245E1,1.4015421E3,5.098527E2,1.644771E3,3.5222844E3,1.1989403E2,1.1407833E1,2.3153567E3,1.0009115E1,2.347609E3,1.9459234E1,1.2317943E2,1.1977869E1,4.1289944E1,5.4563133E1,7.7463486E1,2.722217E2,2.802611E1,1.3883643E1,1.5976764E1,1.3312932E1,6.522959E1,2.8619572E1,5.2093054E2,2.6382229E1,3.5642963E1,5.4879757E1,1.5820568E1,1.2706761E1,6.2154648E1,2.7986206E2,1.704436E2,3.8356668E2,2.5417551E1,1.175934E1,1.3316965E1,2.254614E1,1.0919791E1,1.6315712E1,1.897726E2,1.08371605E2,1.2501101E3,7.81501E1,7.253138E1,1.4855093E1,5.662646E2,1.4654486E2,1.2645393E1,2.9869754E2,1.2750016E3,1.1595092E2,4.3129123E2,2.8020973E1,2.1508875E2,6.1589058E1,2.9180096E2,9.585368E2,2.485986E1,1.0055902E1,1.9814297E1,1.6996546E1,1.865154E1,3.562823E1,1.1529137E1,2.750256E2,1.3571776E2,5.0611752E2,3.0342535E1,2.4262009E1,1.0011056E1,3.825787E2,1.2141078E1,1.1822609E1,7.9434216E2,2.0607546E1,1.9701312E2,8.504409E1,6.3820844E2,2.2052779E2,1.1453883E1,6.933358E1,3.612218E2,1.1671418E1,2.9254099E1,4.0314404E1,1.4981282E2,1.7954336E1,3.0613034E2,4.9549237E2,2.4356502E2,1.568237E1,1.2340398E1,2.4727169E1,1.7101492E2,2.1287382E1,1.2936917E1,1.14922085E1,1.1689758E1,2.004202E1,3.6989426E2,7.8547966E1,1.4084023E1,1.1823214E1,8.366294E1,1.1222463E1,1.6731252E3,7.101472E1,1.7806525E2,2.107902E1,2.3208502E1,7.2831165E2,1.4132096E3,9.935491E1,3.3087073E3,1.402826E3,7.18304E1,1.0493502E1,3.946097E2,1.010943E1,1.3720111E3,1.5606559E1,2.0579039E1,5.7484917E1,2.2173132E2,1.471598E1,6.805694E1,2.209312E1,1.3890735E3,1.2468595E1,4.9760828E2,1.2244408E1,2.4352764E1,1.6204182E3,3.5119253E3,1.035909E1,3.1585722E1,8.8308304E1,2.3051885E3,1.0168094E1,2.336829E3,1.0779823E1,1.1282271E2,1.0356723E1],"tree_param":{"num_deleted":"0","num_feature":"470","num_nodes":"355","size_leaf_vector":"0"}},{"base_weights":[-8.617659E-1,-6.5472066E-1,-9.398731E-1,-5.093792E-1,-7.574192E-1,-8.2589585E-1,-9.839436E-1,-4.5889086E-1,-8.5304785E-1,-4.7575623E-1,-7.960406E-1,-9.0422267E-1,-6.873909E-1,-9.073295E-1,-1.0408388E0,-2.5079668E-1,-5.437705E-1,-8.8258547E-1,-2.1388921E-1,-5.648118E-1,-1.4009139E-1,-8.320416E-1,-4.873701E-1,-6.72215E-1,-9.2978305E-1,-6.170359E-1,-8.9122975E-1,-4.8506203E-1,-9.213441E-1,-6.9381726E-1,-1.0490514E0,1.3809839E-1,-3.4238943E-1,-7.6416284E-1,-4.686982E-1,-1.0432453E0,-7.869403E-1,-6.728575E-1,2.583882E-1,3.0024946E-1,-6.139438E-1,1.0626502E-1,-6.5147364E-1,-9.1113573E-1,-7.27991E-1,-5.958358E-1,-1.4001498E-1,-7.264424E-1,-1.4673321E-1,-8.336806E-1,-9.7411865E-1,-6.4677143E-1,-9.754945E-2,-1.636462E-1,-9.088046E-1,-6.7220074E-1,-1.8910652E-1,-7.4912286E-1,-9.468384E-1,-7.7766275E-1,1.5883781E-1,-1.0790333E0,-9.720537E-1,-6.30809E-1,2.5608128E-1,-3.9099604E-1,1.8873677E-1,-8.108104E-1,-4.5298123E-1,-7.325695E-1,-4.047411E-1,-6.477908E-1,-1.0950438E0,-2.2080222E-1,-8.3117497E-1,-3.1494844E-1,8.310892E-1,-1.0518783E0,-5.574243E-1,-8.2701534E-2,6.113457E-1,-8.9526045E-1,-6.1640926E-2,-8.4140193E-1,-9.8477376E-1,-8.344512E-1,-5.956159E-1,-4.8652235E-1,-9.345316E-1,-2.5584963E-1,6.4720297E-1,-6.273346E-1,-1.0129541E0,-9.5395505E-1,1.4063837E-1,-7.74415E-1,-9.9883443E-1,-1.0370281E0,-9.049621E-1,-8.7156385E-1,-6.0015947E-1,3.3874696E-1,-4.310101E-1,-9.348695E-1,-5.0796175E-1,-7.281361E-1,-3.5063647E-2,6.131805E-1,-3.2343283E-1,-6.0530806E-1,-8.745935E-1,-9.227664E-1,-1.0902071E0,-3.3846024E-1,-8.6093783E-1,5.9295195E-1,-3.1538936E-1,-1.0826365E0,-7.5831354E-1,-1.0041327E0,-8.420862E-1,-1.0849272E0,-2.2472847E-1,1.2918638E-1,1.096921E0,-5.7515E-1,-2.3994738E-1,1.13226E0,-2.515178E-2,-8.313276E-1,-8.377701E-2,-9.748154E-1,-2.1092054E-1,-8.76729E-1,-5.1684844E-1,-4.992573E-1,-1.8322204E-1,-1.0551156E0,-1.4943871E-1,-9.8110706E-1,-1.2817876E0,-5.657827E-1,1.5403938E-1,-7.6269084E-1,-1.174733E0,-6.44982E-1,-1.2247198E0,-7.4632925E-1,-4.0570754E-1,5.057078E-1,-3.017236E-1,7.482591E-2,1.2544518E0,-1.3069102E0,-4.5723215E-1,-8.8332134E-1,-5.535319E-1,-1.0287224E0,-8.1231093E-1,-8.56206E-3,-8.5252464E-1,-8.014296E-1,-5.0423455E-1,-3.6199296E-1,-7.8223073E-1,-1.0166718E0,-2.614086E-1,-4.1134176E-1,4.1511828E-1,-6.600409E-1,1.5405902E-1,-1.0759058E0,-5.316473E-1,5.546922E-1,-4.52849E-1,-9.627176E-1,-7.17816E-1,-1.0343016E0,-6.20683E-1,-1.0474048E0,-4.700649E-1,-8.449831E-1,-1.0442309E0,-9.380292E-1,-4.4758388E-1,-6.5185887E-1,-3.9499602E-1,-2.82606E-1,7.5672024E-1,1.496141E-1,-6.903704E-1,-6.661252E-1,-9.774663E-1,-1.2193574E0,-2.1854001E-1,-1.1108214E0,-6.4454633E-1,7.827832E-2,-5.7131994E-1,-6.7591757E-1,-3.0693588E-1,-1.0963942E0,-7.638586E-1,-1.0286556E0,-8.9119834E-1,-7.818675E-1,-1.1022007E0,-6.5966016E-1,2.1329124E-1,-4.460723E-1,-9.593801E-1,-1.0612828E0,-1.1358991E0,-3.794339E-1,-1.0693756E0,-1.0094718E0,-3.5670063E-1,-1.972085E-1,-8.620395E-1,3.0936006E-1,-1.912554E-1,-7.555159E-1,-3.9044127E-1,-7.117006E-2,-5.082859E-1,2.6551858E-1,-8.502568E-1,-9.0324837E-1,-6.155869E-1,-6.239365E-1,-1.2075475E0,-4.1442057E-1,4.7172228E-1,-9.2501646E-1,-1.1350233E-1,1.24849446E-1,-6.1279553E-1,2.867278E-1,-5.301226E-1,-2.983308E-3,-4.2399335E-1,-1.0539428E0,-4.127965E-1,-8.5647494E-1,-4.3647262E-1,-1.2967253E0,-7.8176355E-1,-1.3388792E0,-8.436025E-1,-8.449934E-1,-2.4062434E-1,-5.745953E-1,-1.1105959E-1,2.686962E-1,-6.1746365E-1,-4.6957675E-1,-8.989439E-1,8.221007E-2,-6.323123E-1,-5.2638483E-1,-1.039806E0,-9.1599965E-1,-4.7214854E-1,-5.3473014E-1,5.8599794E-1,-9.179352E-1,-7.012791E-1,-1.0726161E0,-6.9225425E-1,-4.7224575E-1,-1.1024864E0,-5.4439034E-2,-5.723139E-1,-9.6448606E-1,-3.287835E-1,-1.1426091E0,-5.610808E-1,-5.5929375E-1,2.7702558E-1,-7.257663E-1,-3.121193E-1,-1.1617615E0,-8.031735E-1,-3.9004534E-1,-1.0132153E0,-3.1928298E-1,-7.528633E-1,-1.0511482E0,-5.962779E-1,-1.0489688E0,2.3139078E-6,-1.0797503E0,-9.3962204E-1,-8.558475E-1,1.4540677E-1,-6.543169E-1,-9.066854E-1,-1.0724888E0,-6.5239364E-1,-6.167162E-1,-1.0239521E0,-8.2225317E-1,-7.317163E-2,-5.9853905E-1,-9.140605E-1,-6.925807E-1,-2.236325E-1,1.381584E0,1.803177E-1,-1.1118425E0,-4.5902804E-1,-4.660017E-1,-1.1761699E0,-9.936779E-1,-2.1147221E-1,-7.9942936E-1,1.7765555E-1,-5.217329E-3,-7.081579E-1,-3.5570484E-1,5.836659E-1,8.5975476E-2,-8.145935E-1,-9.4260556E-1,-5.8576727E-1,-4.9053645E-1,4.288152E-1,-4.875825E-1,-1.1391207E0,-4.185769E-1,-8.347067E-1,-1.0702302E0,-8.481848E-1,-8.5051745E-1,-1.0308998E0,-1.0070201E0,-1.6979639E-1,-1.1088457E0,-6.226798E-1,-9.445005E-1,-3.3604172E-1,-8.944858E-1,1.426515E-1,-6.5844643E-1,-1.0777295E0,-1.0357832E0,-1.1345751E0,-1.1527877E0,-1.0414534E0,2.3993903E-1,-6.771111E-1,-7.135435E-1,-1.1556447E0,-9.6000564E-1,-1.0691562E0,-6.647035E-1,-9.2355657E-1],"categories":[],"categories_nodes":[],"categories_segments":[],"categories_sizes":[],"default_left":[1,1,1,1,1,1,1,1,1,1,1,1,1,1,1,1,1,1,1,1,1,1,1,1,1,1,1,1,1,1,1,1,1,1,1,1,1,0,0,1,1,1,1,1,1,1,1,1,1,1,1,1,1,0,1,1,1,1,1,1,1,1,1,1,1,1,1,1,1,1,1,1,1,1,1,0,0,1,1,1,1,1,0,1,1,1,1,1,1,1,0,1,1,0,1,1,1,1,1,1,1,1,1,1,1,1,0,0,1,1,1,1,1,1,1,0,0,1,1,1,1,0,0,1,0,1,1,0,1,1,0,1,1,1,1,1,1,0,0,1,0,0,0,1,1,0,1,1,1,0,1,0,0,0,0,1,1,1,1,1,1,1,1,1,1,1,0,1,0,1,0,1,0,0,0,1,1,1,1,1,1,1,1,1,1,1,1,0,1,0,1,1,1,0,1,0,1,1,1,1,1,1,1,1,1,1,1,1,0,1,1,1,1,1,1,1,0,0,1,0,0,0,0,0,0,0,0,0,0,0,0,0,0,0,0,0,0,0,0,0,0,0,0,0,0,0,0,0,0,0,0,0,0,0,0,0,0,0,0,0,0,0,0,0,0,0,0,0,0,0,0,0,0,0,0,0,0,0,0,0,0,0,0,0,0,0,0,0,0,0,0,0,0,0,0,0,0,0,0,0,0,0,0,0,0,0,0,0,0,0,0,0,0,0,0,0,0,0,0,0,0,0,0,0,0,0,0,0,0,0,0,0,0,0,0,0,0,0,0,0,0,0,0,0,0,0,0,0,0,0,0,0,0,0,0,0,0],"id":3,"left_children":[1,3,5,7,9,11,13,15,17,19,21,23,25,27,29,31,33,35,37,39,41,43,45,47,49,51,53,55,57,59,61,63,65,67,69,71,73,-1,-1,75,77,79,81,83,85,87,89,91,93,95,97,99,101,-1,103,105,107,109,111,113,115,117,119,121,123,125,127,129,131,133,135,137,139,141,143,-1,-1,145,147,149,151,153,-1,155,157,159,161,163,165,167,-1,169,171,-1,173,175,177,179,181,183,185,187,189,191,193,195,-1,-1,197,199,201,203,205,207,209,-1,-1,211,213,215,217,-1,-1,219,-1,221,223,-1,225,227,-1,229,231,233,235,237,239,-1,-1,241,-1,-1,-1,243,245,-1,247,249,251,-1,253,-1,-1,-1,-1,255,257,259,261,263,265,267,269,271,273,275,-1,277,-1,279,-1,281,-1,-1,-1,283,285,287,289,291,293,295,297,299,301,303,305,-1,307,-1,309,311,313,-1,315,-1,317,319,321,323,325,327,329,331,333,335,337,339,-1,341,343,345,347,349,351,353,-1,-1,355,-1,-1,-1,-1,-1,-1,-1,-1,-1,-1,-1,-1,-1,-1,-1,-1,-1,-1,-1,-1,-1,-1,-1,-1,-1,-1,-1,-1,-1,-1,-1,-1,-1,-1,-1,-1,-1,-1,-1,-1,-1,-1,-1,-1,-1,-1,-1,-1,-1,-1,-1,-1,-1,-1,-1,-1,-1,-1,-1,-1,-1,-1,-1,-1,-1,-1,-1,-1,-1,-1,-1,-1,-1,-1,-1,-1,-1,-1,-1,-1,-1,-1,-1,-1,-1,-1,-1,-1,-1,-1,-1,-1,-1,-1,-1,-1,-1,-1,-1,-1,-1,-1,-1,-1,-1,-1,-1,-1,-1,-1,-1,-1,-1,-1,-1,-1,-1,-1,-1,-1,-1,-1,-1,-1,-1,-1,-1,-1,-1,-1,-1,-1,-1,-1,-1,-1,-1,-1],"loss_changes":[5.359922E2,1.3532812E2,1.2019531E2,6.4981384E1,5.755493E1,7.232129E1,7.476367E1,5.7924866E1,8.90036E0,1.9192032E1,5.1622314E1,2.4826172E1,3.434192E1,4.3399902E1,2.7657227E1,3.4036137E1,3.825818E1,6.2452393E0,5.0695806E0,2.1825134E1,1.7266514E1,3.383252E1,1.8432388E1,1.2132477E1,1.5647705E1,2.7926697E1,7.805298E0,1.3171566E1,3.0771973E1,1.679602E1,2.1407227E1,1.6727354E1,2.0019424E1,8.2178955E0,2.9128113E1,2.7428436E0,7.1370087E0,0E0,0E0,9.417553E0,1.1347351E1,8.925318E0,6.3466434E0,1.1379272E1,2.5083313E1,1.3399582E1,1.094849E1,1.0412628E1,9.744874E0,1.1231689E1,1.0537109E1,1.7432983E1,1.4589966E1,0E0,5.8684998E0,5.2029343E0,1.0372278E1,1.6239746E1,2.0535156E1,7.480728E0,4.6563907E0,7.2597656E0,1.05625E1,4.2891426E0,1.6826195E1,1.9559982E1,1.3237193E1,7.583557E0,9.819639E0,1.0086563E1,2.933812E1,4.3013926E0,1.8821564E0,3.002719E0,5.4748383E0,0E0,0E0,3.0066795E0,1.1996643E1,8.986776E0,8.682496E0,5.0692043E0,0E0,1.4328735E1,7.8841553E0,1.4972412E1,1.4878784E1,1.0211021E1,4.7223816E0,1.100013E1,0E0,7.5567093E0,2.408516E0,0E0,7.973404E0,8.976257E0,3.6559753E0,7.593384E0,9.678589E0,7.811615E0,1.4831665E1,1.1528881E1,8.643525E0,5.861145E0,7.8166437E0,3.5966644E0,0E0,0E0,8.162518E0,8.9835205E0,1.1297302E1,1.6969727E1,2.4364014E0,6.4351416E0,6.8409424E0,0E0,0E0,6.65625E0,9.143143E0,7.208008E0,6.879822E0,0E0,0E0,8.102133E0,0E0,1.031221E1,1.7661093E1,0E0,1.3256999E1,7.184601E0,0E0,1.2777462E0,7.9045043E0,7.3292084E0,8.585232E0,2.4039597E1,1.8310041E1,0E0,0E0,3.535019E0,0E0,0E0,0E0,6.620575E0,1.0549927E0,0E0,4.7060776E-1,9.274567E0,1.1888748E1,0E0,9.275711E0,0E0,0E0,0E0,0E0,6.495178E0,8.003273E0,4.536194E0,7.975601E0,7.3526278E0,9.071838E0,6.6046906E0,1.0300262E1,1.3060602E1,6.590763E0,3.952385E0,0E0,8.788602E0,0E0,6.1803894E0,0E0,1.0809937E0,0E0,0E0,0E0,5.5823364E0,9.556061E0,1.5240784E0,7.9694176E0,3.6878662E0,6.420414E0,9.864868E0,3.4674377E0,6.314865E0,5.7612915E0,1.5316864E1,1.4575806E1,0E0,9.2301855E0,0E0,3.3292522E0,7.716858E0,5.8611145E0,0E0,6.844805E0,0E0,4.593136E0,7.223534E0,8.1504135E0,7.90921E0,1.1735063E1,3.6645203E0,7.792679E0,8.263916E0,2.2592041E1,4.904764E0,2.0369873E0,1.7744465E0,0E0,9.632006E0,4.38266E0,8.074707E0,1.9321289E0,7.1832337E0,5.2433777E-1,5.3828125E0,0E0,0E0,5.8338623E0,0E0,0E0,0E0,0E0,0E0,0E0,0E0,0E0,0E0,0E0,0E0,0E0,0E0,0E0,0E0,0E0,0E0,0E0,0E0,0E0,0E0,0E0,0E0,0E0,0E0,0E0,0E0,0E0,0E0,0E0,0E0,0E0,0E0,0E0,0E0,0E0,0E0,0E0,0E0,0E0,0E0,0E0,0E0,0E0,0E0,0E0,0E0,0E0,0E0,0E0,0E0,0E0,0E0,0E0,0E0,0E0,0E0,0E0,0E0,0E0,0E0,0E0,0E0,0E0,0E0,0E0,0E0,0E0,0E0,0E0,0E0,0E0,0E0,0E0,0E0,0E0,0E0,0E0,0E0,0E0,0E0,0E0,0E0,0E0,0E0,0E0,0E0,0E0,0E0,0E0,0E0,0E0,0E0,0E0,0E0,0E0,0E0,0E0,0E0,0E0,0E0,0E0,0E0,0E0,0E0,0E0,0E0,0E0,0E0,0E0,0E0,0E0,0E0,0E0,0E0,0E0,0E0,0E0,0E0,0E0,0E0,0E0,0E0,0E0,0E0,0E0,0E0,0E0,0E0,0E0,0E0,0E0,0E0,0E0,0E0,0E0,0E0,0E0],"parents":[2147483647,0,0,1,1,2,2,3,3,4,4,5,5,6,6,7,7,8,8,9,9,10,10,11,11,12,12,13,13,14,14,15,15,16,16,17,17,18,18,19,19,20,20,21,21,22,22,23,23,24,24,25,25,26,26,27,27,28,28,29,29,30,30,31,31,32,32,33,33,34,34,35,35,36,36,39,39,40,40,41,41,42,42,43,43,44,44,45,45,46,46,47,47,48,48,49,49,50,50,51,51,52,52,54,54,55,55,56,56,57,57,58,58,59,59,60,60,61,61,62,62,63,63,64,64,65,65,66,66,67,67,68,68,69,69,70,70,71,71,72,72,73,73,74,74,77,77,78,78,79,79,80,80,81,81,83,83,84,84,85,85,86,86,87,87,88,88,89,89,91,91,92,92,94,94,95,95,96,96,97,97,98,98,99,99,100,100,101,101,102,102,103,103,104,104,105,105,108,108,109,109,110,110,111,111,112,112,113,113,114,114,117,117,118,118,119,119,120,120,123,123,125,125,126,126,128,128,129,129,131,131,132,132,133,133,134,134,135,135,136,136,139,139,143,143,144,144,146,146,147,147,148,148,150,150,155,155,156,156,157,157,158,158,159,159,160,160,161,161,162,162,163,163,164,164,165,165,167,167,169,169,171,171,175,175,176,176,177,177,178,178,179,179,180,180,181,181,182,182,183,183,184,184,185,185,186,186,188,188,190,190,191,191,192,192,194,194,196,196,197,197,198,198,199,199,200,200,201,201,202,202,203,203,204,204,205,205,206,206,207,207,209,209,210,210,211,211,212,212,213,213,214,214,215,215,218,218],"right_children":[2,4,6,8,10,12,14,16,18,20,22,24,26,28,30,32,34,36,38,40,42,44,46,48,50,52,54,56,58,60,62,64,66,68,70,72,74,-1,-1,76,78,80,82,84,86,88,90,92,94,96,98,100,102,-1,104,106,108,110,112,114,116,118,120,122,124,126,128,130,132,134,136,138,140,142,144,-1,-1,146,148,150,152,154,-1,156,158,160,162,164,166,168,-1,170,172,-1,174,176,178,180,182,184,186,188,190,192,194,196,-1,-1,198,200,202,204,206,208,210,-1,-1,212,214,216,218,-1,-1,220,-1,222,224,-1,226,228,-1,230,232,234,236,238,240,-1,-1,242,-1,-1,-1,244,246,-1,248,250,252,-1,254,-1,-1,-1,-1,256,258,260,262,264,266,268,270,272,274,276,-1,278,-1,280,-1,282,-1,-1,-1,284,286,288,290,292,294,296,298,300,302,304,306,-1,308,-1,310,312,314,-1,316,-1,318,320,322,324,326,328,330,332,334,336,338,340,-1,342,344,346,348,350,352,354,-1,-1,356,-1,-1,-1,-1,-1,-1,-1,-1,-1,-1,-1,-1,-1,-1,-1,-1,-1,-1,-1,-1,-1,-1,-1,-1,-1,-1,-1,-1,-1,-1,-1,-1,-1,-1,-1,-1,-1,-1,-1,-1,-1,-1,-1,-1,-1,-1,-1,-1,-1,-1,-1,-1,-1,-1,-1,-1,-1,-1,-1,-1,-1,-1,-1,-1,-1,-1,-1,-1,-1,-1,-1,-1,-1,-1,-1,-1,-1,-1,-1,-1,-1,-1,-1,-1,-1,-1,-1,-1,-1,-1,-1,-1,-1,-1,-1,-1,-1,-1,-1,-1,-1,-1,-1,-1,-1,-1,-1,-1,-1,-1,-1,-1,-1,-1,-1,-1,-1,-1,-1,-1,-1,-1,-1,-1,-1,-1,-1,-1,-1,-1,-1,-1,-1,-1,-1,-1,-1,-1],"split_conditions":[-6.4447534E-1,-4.7973457E-1,-4.139581E-1,-9.404944E-4,-2.2608876E0,2.9232353E-1,4.2070356E-1,-1.8790892E0,1.9006951E0,1.0019488E0,2.2220138E-2,-1.2288721E0,6.2338793E-1,-2.3757093E0,-2.1995573E0,-1.1695728E0,-5.873327E-1,-6.469569E-1,-1.1807238E0,-9.97838E-1,7.7233756E-1,-2.3684348E-1,-3.2116878E-1,1.7031436E0,-3.403697E-1,2.8316587E-2,-2.509941E0,-1.4447909E-2,-1.2742372E0,7.389829E-1,5.411365E-1,-1.0786563E0,6.092262E-3,9.0175796E-1,-9.758073E-1,-7.3271E-1,-2.3569908E0,-2.0185727E-1,7.751646E-2,-5.474241E-1,-4.8599532E-1,9.137299E-1,2.1187499E-1,-1.3472722E-1,2.6510972E-1,7.939133E-2,8.982335E-1,7.5317657E-1,-4.7902334E-1,2.5064592E0,-1.04785725E-1,-9.026196E-1,-3.403697E-1,-4.9093865E-2,1.7248341E0,3.2145113E-1,-5.8603954E-1,7.649549E-1,7.6906663E-1,-3.979501E-1,-8.813581E-2,1.596287E0,2.9778388E-1,-3.571474E-1,9.315926E-1,-6.45771E-1,-7.623401E-1,3.6444342E-1,-1.3049138E0,-1.6582498E-1,4.49249E-2,-4.0156513E-1,-1.407536E-1,-6.4171565E-1,5.035808E-1,-9.448454E-2,2.4932677E-1,-3.403697E-1,-3.7611514E-2,-3.51784E-1,1.2594342E0,1.8856657E0,-1.8492278E-2,5.707614E-1,8.3263564E-1,-1.4383519E0,-4.85768E-1,-4.2072255E-2,1.073143E0,7.151725E-1,1.941609E-1,1.7058599E0,1.2409141E0,-2.8618652E-1,2.1552542E-1,-6.634333E-1,4.6583433E0,2.440625E0,6.2338793E-1,1.113323E0,3.6054018E-5,-4.6998E-1,5.088505E-1,-1.2724948E0,-7.9945266E-1,-5.0965357E-1,-1.0519095E-2,1.8395416E-1,-5.3409994E-1,2.6817045E0,-7.7723277E-1,-8.717091E-1,-1.449784E0,5.6907696E-1,-6.9958365E-1,1.7788559E-1,-9.4616815E-2,2.011258E-5,7.663673E-1,6.506795E0,-2.0907516E0,-3.2547817E-1,-6.7418545E-2,-3.1938198E-1,3.290763E-1,2.737208E-1,1.8918091E-1,3.39678E-1,-4.019075E-1,6.7884064E-1,-2.5133105E-2,-6.377318E-1,3.2556581E-1,-3.7316844E-2,-4.2153895E-1,-2.6625857E0,-3.012377E-1,-3.165347E-1,-4.4831615E-2,-6.0407057E-2,-3.845363E-1,-1.6973482E-1,4.6211816E-2,1.3774218E-1,3.9406884E-1,-1.934946E-1,3.6263263E-1,5.58217E-1,8.7180996E-1,1.5171234E-1,-2.4850962E-1,2.2447774E-2,3.7633553E-1,-3.9207307E-1,-1.3716964E-1,-2.425021E0,-4.9530345E-1,-2.4292622E0,2.5858414E-1,-1.8455678E-1,5.2154776E-2,-4.2163205E-1,4.841866E-1,-2.987998E-1,1.6366658E0,1.1756485E0,-7.842258E-2,1.1274922E0,1.24535486E-1,1.747941E0,4.621771E-2,4.0215433E-1,-1.594942E-1,1.6640767E-1,-1.358547E-1,-4.405377E-1,-3.4241456E-1,-1.0788168E-1,-8.392867E-2,3.5288006E-1,-3.1233728E-1,-7.425606E-1,1.2083545E0,-7.333063E-1,-6.468499E-1,1.5447952E-3,5.0583583E-1,-8.47818E-2,8.425299E-1,4.488423E-2,-4.758063E-1,-1.4296699E-1,2.8153763E-3,-3.6580724E-1,-6.2045217E-1,-3.332464E-1,-8.747616E-1,4.0233812E-1,-5.8391523E-1,3.470015E-1,8.4398425E-1,-1.4011393E0,-4.5278873E-2,1.0228776E0,6.2338793E-1,-8.447203E-2,3.9287963E0,-6.349321E-1,6.3987374E-2,-3.3309507E-1,-2.7256126E0,4.6732306E-2,6.940573E-1,-7.716223E-1,-3.575871E-1,6.2326807E-1,-1.0701019E-1,-5.916255E-2,-2.7393985E-1,9.280802E-2,-5.7376623E-2,-2.2665477E-1,-1.1713239E-1,-2.1351019E-2,-1.5248577E-1,7.965557E-2,-2.5507706E-1,-2.7097452E-1,-1.8467607E-1,-1.8718095E-1,-3.6226428E-1,-1.2432618E-1,1.4151669E-1,-2.7750495E-1,-3.40507E-2,3.7454836E-2,-1.8383867E-1,8.601834E-2,-1.5903679E-1,-8.9499244E-4,-1.2719801E-1,-3.1618285E-1,-1.2383895E-1,-2.5694248E-1,-1.309418E-1,-3.890176E-1,-2.3452908E-1,-4.0166378E-1,-2.5308076E-1,-2.5349805E-1,-7.2187304E-2,-1.7237858E-1,-3.331788E-2,8.060886E-2,-1.852391E-1,-1.4087303E-1,-2.6968318E-1,2.4663022E-2,-1.896937E-1,-1.5791546E-1,-3.119418E-1,-2.747999E-1,-1.4164457E-1,-1.6041905E-1,1.7579938E-1,-2.7538058E-1,-2.1038374E-1,-3.2178485E-1,-2.0767628E-1,-1.4167373E-1,-3.3074594E-1,-1.6331712E-2,-1.7169417E-1,-2.8934583E-1,-9.8635055E-2,-3.4278274E-1,-1.6832425E-1,-1.6778813E-1,8.310768E-2,-2.177299E-1,-9.36358E-2,-3.4852847E-1,-2.4095206E-1,-1.1701361E-1,-3.039646E-1,-9.5784895E-2,-2.25859E-1,-3.1534445E-1,-1.7888337E-1,-3.1469065E-1,6.9417234E-7,-3.239251E-1,-2.8188664E-1,-2.5675425E-1,4.362203E-2,-1.9629508E-1,-2.7200565E-1,-3.2174665E-1,-1.957181E-1,-1.8501487E-1,-3.0718565E-1,-2.4667595E-1,-2.195149E-2,-1.7956172E-1,-2.7421814E-1,-2.0777422E-1,-6.708975E-2,4.1447523E-1,5.4095313E-2,-3.3355278E-1,-1.3770841E-1,-1.3980052E-1,-3.5285097E-1,-2.981034E-1,-6.3441664E-2,-2.3982881E-1,5.3296667E-2,-1.5651988E-3,-2.1244738E-1,-1.06711455E-1,1.7509978E-1,2.5792643E-2,-2.4437806E-1,-2.827817E-1,-1.7573018E-1,-1.4716095E-1,1.2864456E-1,-1.4627476E-1,-3.4173623E-1,-1.2557307E-1,-2.5041202E-1,-3.210691E-1,-2.5445545E-1,-2.5515524E-1,-3.0926993E-1,-3.0210605E-1,-5.093892E-2,-3.3265373E-1,-1.8680395E-1,-2.8335017E-1,-1.0081252E-1,-2.6834574E-1,4.279545E-2,-1.9753394E-1,-3.2331884E-1,-3.1073496E-1,-3.4037256E-1,-3.458363E-1,-3.12436E-1,7.198171E-2,-2.0313333E-1,-2.1406305E-1,-3.466934E-1,-2.8800172E-1,-3.2074687E-1,-1.9941105E-1,-2.7706698E-1],"split_indices":[26,384,373,25,26,356,26,26,46,273,312,25,399,25,25,252,8,5,315,49,384,178,284,130,390,262,25,6,252,131,67,6,320,156,6,384,26,0,0,11,9,10,8,384,8,76,257,26,9,315,8,8,390,0,11,379,4,203,25,372,373,113,167,76,119,5,319,320,8,74,178,71,230,385,60,0,0,390,397,31,266,273,0,273,266,25,402,239,356,468,0,66,429,0,156,6,330,156,399,278,351,9,275,339,329,269,0,0,252,168,11,8,257,10,369,0,0,384,26,160,252,0,0,60,0,10,5,0,372,276,0,385,273,263,376,25,60,0,0,51,0,0,0,201,244,0,387,156,17,0,78,0,0,0,0,25,378,25,8,377,156,66,335,306,303,56,0,452,0,239,0,279,0,0,0,379,26,378,183,130,361,252,273,384,6,25,41,0,251,0,9,376,263,0,38,0,273,258,385,42,164,356,335,66,399,173,414,31,0,5,25,25,167,48,43,384,0,0,367,0,0,0,0,0,0,0,0,0,0,0,0,0,0,0,0,0,0,0,0,0,0,0,0,0,0,0,0,0,0,0,0,0,0,0,0,0,0,0,0,0,0,0,0,0,0,0,0,0,0,0,0,0,0,0,0,0,0,0,0,0,0,0,0,0,0,0,0,0,0,0,0,0,0,0,0,0,0,0,0,0,0,0,0,0,0,0,0,0,0,0,0,0,0,0,0,0,0,0,0,0,0,0,0,0,0,0,0,0,0,0,0,0,0,0,0,0,0,0,0,0,0,0,0,0,0,0,0,0,0,0,0,0,0,0,0,0,0],"split_type":[0,0,0,0,0,0,0,0,0,0,0,0,0,0,0,0,0,0,0,0,0,0,0,0,0,0,0,0,0,0,0,0,0,0,0,0,0,0,0,0,0,0,0,0,0,0,0,0,0,0,0,0,0,0,0,0,0,0,0,0,0,0,0,0,0,0,0,0,0,0,0,0,0,0,0,0,0,0,0,0,0,0,0,0,0,0,0,0,0,0,0,0,0,0,0,0,0,0,0,0,0,0,0,0,0,0,0,0,0,0,0,0,0,0,0,0,0,0,0,0,0,0,0,0,0,0,0,0,0,0,0,0,0,0,0,0,0,0,0,0,0,0,0,0,0,0,0,0,0,0,0,0,0,0,0,0,0,0,0,0,0,0,0,0,0,0,0,0,0,0,0,0,0,0,0,0,0,0,0,0,0,0,0,0,0,0,0,0,0,0,0,0,0,0,0,0,0,0,0,0,0,0,0,0,0,0,0,0,0,0,0,0,0,0,0,0,0,0,0,0,0,0,0,0,0,0,0,0,0,0,0,0,0,0,0,0,0,0,0,0,0,0,0,0,0,0,0,0,0,0,0,0,0,0,0,0,0,0,0,0,0,0,0,0,0,0,0,0,0,0,0,0,0,0,0,0,0,0,0,0,0,0,0,0,0,0,0,0,0,0,0,0,0,0,0,0,0,0,0,0,0,0,0,0,0,0,0,0,0,0,0,0,0,0,0,0,0,0,0,0,0,0,0,0,0,0,0,0,0,0,0,0,0,0,0,0,0,0,0,0,0,0,0,0,0,0,0,0,0,0,0,0,0,0,0,0,0],"sum_hessian":[3.31808E4,9.091249E3,2.408955E4,3.7666108E3,5.3246387E3,6.7227036E3,1.7366846E4,3.286174E3,4.8043668E2,6.4367474E2,4.680964E3,4.2907095E3,2.4319946E3,7.4081343E3,9.958712E3,9.532079E2,2.3329663E3,4.588508E2,2.1585875E1,5.0816916E2,1.3550557E2,4.190517E3,4.9044672E2,4.2850833E2,3.862201E3,1.8109661E3,6.2102844E2,2.3911455E2,7.1690195E3,2.322102E2,9.726502E3,1.81608E2,7.715999E2,5.9043286E2,1.7425333E3,1.6753189E2,2.9131894E2,1.0731798E1,1.0854076E1,2.7036137E1,4.8113303E2,9.1984566E1,4.3521008E1,2.3763657E3,1.8141512E3,3.731964E2,1.172503E2,3.8807797E2,4.0430367E1,1.2255289E3,2.636672E3,1.7126865E3,9.827962E1,1.4890408E1,6.06138E2,1.4570868E2,9.340587E1,9.2832117E2,6.2406987E3,2.1150035E2,2.0709854E1,6.991207E3,2.735295E3,2.3581055E1,1.5802695E2,7.0714825E2,6.445164E1,5.1206616E2,7.836669E1,3.379168E2,1.4046166E3,2.0966806E1,1.4656508E2,2.1546574E1,2.6977234E2,1.2711404E1,1.4324733E1,5.298383E1,4.281492E2,6.754873E1,2.443584E1,3.0427176E1,1.3093832E1,1.2269208E3,1.149445E3,1.00255817E3,8.1159314E2,2.8397913E2,8.921729E1,1.02799E2,1.4451295E1,2.9070813E2,9.736982E1,1.0005501E1,3.0424868E1,9.060729E2,3.194561E2,1.3733679E3,1.2633041E3,2.9110342E2,1.421583E3,4.2568104E1,5.5711517E1,5.678792E2,3.8258774E1,1.3381776E2,1.18909235E1,1.2884732E1,8.052113E1,4.3525513E2,4.9306604E2,5.3498765E3,8.908221E2,3.4517166E1,1.7698318E2,1.0681503E1,1.0028351E1,6.9111846E3,8.0022385E1,2.1884165E3,5.4687854E2,1.0342914E1,1.3238142E1,1.383079E2,1.9719027E1,3.1738922E2,3.8975906E2,1.1117129E1,5.3334507E1,4.9787253E2,1.4193655E1,2.3873363E1,5.449333E1,2.0071873E2,1.3719809E2,9.836612E2,4.2095535E2,1.0922315E1,1.0044492E1,9.491131E1,5.1653767E1,1.0954944E1,1.0591629E1,2.2761919E2,4.2153168E1,1.7207132E1,3.57767E1,1.8895682E2,2.3919238E2,1.7968061E1,4.958067E1,1.3930491E1,1.0505348E1,1.46633E1,1.5763876E1,1.0691619E3,1.57759E2,9.1205975E2,2.3738515E2,2.1501314E1,9.810569E2,2.471591E2,5.64434E2,2.0139243E2,8.25867E1,7.905942E1,1.0157876E1,8.37723E1,1.9026705E1,2.7917807E2,1.1530073E1,8.5015045E1,1.2354777E1,1.7960129E1,1.2464739E1,2.0570181E2,7.003711E2,2.904768E2,2.8979288E1,1.3478517E3,2.5516237E1,8.879547E2,3.7534937E2,2.5060483E2,4.049861E1,1.1337185E3,2.878645E2,1.7249348E1,2.5318758E1,1.7332582E1,3.8378933E1,7.9971924E1,4.8790732E2,1.0134702E1,2.8124071E1,2.178664E1,1.1203112E2,3.0988012E1,4.9533123E1,3.5094016E2,8.4314964E1,1.6122775E2,3.318383E2,1.2213838E3,4.1284927E3,3.583167E1,8.549904E2,2.1693062E1,1.2824105E1,3.5002666E1,1.4198051E2,4.9482695E3,1.9629148E3,3.7079113E1,4.294327E1,2.169963E3,1.845358E1,1.6739925E1,5.301386E2,8.855243E1,4.975548E1,1.5901888E2,1.5837033E2,2.4004364E2,1.4971541E2,3.994187E1,1.3392636E1,3.7100513E2,1.2686741E2,1.0988085E1,1.2885279E1,4.2281784E1,1.2211543E1,1.8857602E2,1.2142722E1,1.7806463E1,1.19391624E2,3.685515E1,9.46806E2,2.41319E2,1.7963634E2,8.337172E1,1.153959E1,1.755306E2,5.208859E1,3.041227E1,1.1740897E1,2.5596508E1,1.0180191E1,1.5754793E2,3.140889E1,1.5143945E2,8.775292E1,1.7718752E1,3.1861916E1,4.0031532E1,1.0291302E3,1.7389082E1,1.4036992E2,2.073598E1,8.913238E2,1.8063187E2,5.6753284E1,1.1460096E1,1.0041219E1,6.813276E2,2.9972925E2,6.8409195E1,1.7874991E2,5.374839E2,2.6950134E1,8.230135E1,1.19091064E2,5.810527E1,2.4481428E1,6.0756695E1,1.8302725E1,6.9106606E1,1.4665698E1,2.339053E2,4.527277E1,6.2180878E1,2.2834167E1,1.737569E1,1.8832613E2,5.742983E1,6.429412E2,2.7837085E2,1.2105944E1,1.673901E1,1.224028E1,1.0297935E3,3.180583E2,1.5444774E1,1.0071464E1,2.1993594E2,6.6801874E2,3.4848114E2,2.6868225E1,5.4600594E1,1.9600423E2,1.9644505E1,2.0854105E1,9.4486005E2,1.8885847E2,1.0408027E2,1.8378423E2,1.14784E1,1.3840358E1,1.2251829E1,2.6127104E1,5.881044E1,2.1161488E1,4.775041E2,1.040322E1,1.0991264E1,1.7132807E1,1.0236007E1,1.0179511E2,1.6831097E1,1.4156916E1,1.3555206E1,3.5977917E1,8.6271286E1,2.6466888E2,6.774344E1,1.6571526E1,1.13869295E1,1.4984082E2,5.76732E1,2.741651E2,9.886915E2,2.3269226E2,3.2029E3,9.255926E2,2.5723806E1,1.0107863E1,8.420099E2,1.2980537E1,1.0517381E1,1.1175681E1,1.9574207E1,1.5428457E1,4.192897E1,1.0005155E2,3.6822793E3,1.2659904E3,1.6556495E3,3.072653E2,1.2098951E1,2.4980162E1,1.01888075E1,3.2754467E1,1.195896E3,9.740669E2,1.2879417E2,4.0134442E2],"tree_param":{"num_deleted":"0","num_feature":"470","num_nodes":"357","size_leaf_vector":"0"}},{"base_weights":[-7.245913E-1,-4.3048656E-1,-7.932423E-1,-1.6161902E-1,-4.8564127E-1,-7.1168023E-1,-9.1330594E-1,-6.3129324E-1,-1.0246716E-1,-4.2602503E-1,-6.7568785E-1,-6.040151E-1,-7.9266775E-1,-8.4996045E-1,-9.7320276E-1,-9.2112385E-3,-8.378496E-1,2.8408325E-1,-2.0702723E-1,-6.463472E-1,-3.7633613E-1,-8.162958E-1,-5.865795E-1,-4.5371065E-1,-6.925034E-1,-8.339579E-1,-6.43529E-1,-9.306394E-1,-7.715993E-1,-9.835181E-1,-8.006949E-1,-6.227614E-1,4.118885E-1,-9.5353E-1,-9.0096E-2,4.46312E-1,-3.046498E-1,-1.6336626E-1,-7.1211654E-1,-6.733137E-1,6.512335E-2,-2.4818006E-1,-4.7531605E-1,-8.4114194E-1,-1.0653817E-1,-6.115755E-1,5.4701667E-2,-3.0709755E-1,-5.9321934E-1,-8.5925186E-1,-6.3001233E-1,-8.6987025E-1,-6.909282E-1,-6.5138906E-1,5.361213E-1,-9.471202E-1,-6.961864E-1,-8.911153E-1,-6.971007E-1,-1.0014619E0,-8.9368874E-1,-8.5553706E-1,-3.578268E-1,-1.0573459E0,-3.7929162E-1,-5.408111E-1,5.305902E-1,-6.2706715E-1,1.7552662E-1,-7.638202E-2,-4.1481745E-1,-2.9908004E-1,-1.0710794E0,-4.5095956E-1,-7.5575936E-1,6.5050125E-1,-5.8563817E-1,-2.7538314E-1,4.3483034E-1,-3.473933E-1,-5.6773156E-1,-8.6706287E-1,-3.158234E-1,-2.3215452E-1,-6.517906E-1,4.6847564E-1,-4.5584783E-1,-5.7970965E-1,-2.0693347E-1,-5.210553E-1,-8.3794636E-1,-8.880199E-1,-4.5252854E-1,-7.8473365E-1,-5.486893E-1,-7.8728557E-1,-9.1581494E-1,-6.308472E-1,-8.530413E-1,-5.499418E-1,-7.430739E-1,-9.5107234E-1,-1.1729459E-1,-7.883629E-1,-1.1789593E-1,-9.41438E-1,-6.8629545E-1,-6.401511E-1,-8.836185E-1,-8.969912E-1,-1.0195376E0,-9.102451E-1,-1.8752605E-1,-5.5472267E-1,-9.350848E-1,1.6688354E-1,-6.194482E-1,-1.1623826E0,-5.683349E-1,6.6089207E-1,1.3945597E-2,-9.291056E-1,-2.0963208E-1,3.6121783E-1,-1.8194339E-1,-5.565889E-1,1.2467252E-1,1.5606038E-1,-7.7753735E-1,2.7685282E-1,-5.329293E-1,-7.879617E-1,3.411483E-1,-4.3873712E-1,-1.7735939E-1,2.3171527E-3,8.821058E-1,-2.5082028E-1,-6.04583E-1,-5.905159E-1,-2.700054E-2,-9.0634537E-1,-5.7063633E-1,-4.824112E-1,3.1315115E-1,-7.902825E-1,-5.263073E-1,-8.9230996E-1,-4.6190563E-1,1.4316559E-1,-3.0074024E-1,-5.7759553E-1,-2.265999E-1,-8.7788135E-1,-1.9118379E-1,-9.0870893E-1,-4.01141E-1,-3.315216E-2,-8.53052E-1,-8.360546E-1,-5.9323806E-1,-7.4881846E-1,-4.5673782E-1,-9.403584E-1,-7.278051E-1,-9.313337E-1,-6.835113E-1,-6.6649526E-1,-3.0195105E-1,-8.7728316E-1,-1.5489729E-1,-2.9884157E-1,-6.7312306E-1,-6.699175E-1,-9.6422523E-1,-9.553805E-1,-2.5405648E-1,-1.4830387E-1,-8.408509E-1,3.124445E-1,-5.176153E-1,-9.524334E-1,-2.0573458E-1,-3.5005933E-1,-7.833473E-1,-4.4768175E-1,-7.0710593E-1,-9.1587275E-1,-6.977428E-2,-9.1010535E-1,-3.7215477E-1,-1.03523E0,-9.079005E-1,-9.367693E-1,-4.6068624E-1,-2.9758486E-1,-8.9158285E-1,-9.9401945E-1,-6.470513E-1,-2.6235604E-1,-9.392678E-1,-8.0780923E-1,-1.2405114E0,3.366383E-1,1.0055865E0,5.663478E-1,-7.5624907E-1,1.7114405E-1,1.1651037E0,-2.2027151E-1,5.8374864E-1,-2.8887194E-1,-7.2224945E-1,7.976502E-1,-2.3840536E-1,1.42806E-1,-6.0913783E-1,-8.134061E-1,-4.1220984E-3,-1.3757403E-1,-5.613861E-1,-2.0951135E-1,4.549992E-1,5.9743404E-1,-5.720616E-1,1.4763095E0,2.9467502E-1,-2.878981E-1,5.040328E-1,-6.704111E-1,-6.9547268E-3,-6.324946E-1,-3.2463434E-1,5.539002E-1,-4.5235878E-1,-9.435029E-1,-5.954496E-1,1.691156E-1,-8.071161E-1,-7.289407E-1,9.64697E-2,-8.22338E-1,1.10831605E-2,-5.4697555E-2,-5.8480525E-1,-1.0547711E0,-4.2313707E-1,-5.236195E-1,1.6816501E-1,4.9609265E-1,-1.7163427E-1,-5.623029E-1,-2.0529218E-1,-7.759315E-1,-4.8785394E-1,-9.2387986E-1,2.3703046E-2,-9.101742E-1,-1.9648206E-1,-1.06689E0,-8.610698E-1,-7.1319926E-1,1.8576574E-1,-4.2469856E-1,5.4935694E-1,-1.1012943E0,-4.4000715E-1,-8.4928226E-1,-1.9228554E-1,-8.8027143E-1,-4.045263E-1,-6.306413E-1,-8.8233554E-1,-2.8546345E-1,-5.5456996E-1,-9.7085696E-1,-6.6138464E-1,-6.6813284E-1,-8.6957073E-1,-8.8469297E-1,-1.0080788E0,-7.323331E-1,6.2129223E-3,-4.787807E-1,-7.388176E-1,-4.3602398E-1,5.898419E-1,-9.2242676E-1,-5.076735E-1,-3.576267E-1,8.940987E-1,-8.4326386E-1,-5.3369176E-1,-7.390444E-1,-4.2474857E-1,-9.90193E-1,-3.9064372E-1,-8.817233E-1,-9.857126E-1,-9.564115E-1,-4.7400936E-1,-8.141455E-1,-9.9691254E-1,-6.6070133E-1,3.675221E-1,-8.4945333E-1,-3.1474426E-1,-2.0141968E-1,-5.74599E-1,-7.2892547E-1,1.2455488E-1,-4.623524E-1,-9.441641E-1,-9.325087E-1,-7.0721555E-1,-1.0472125E0,-8.987422E-1,-9.980304E-1,-6.8266404E-1,-9.521054E-1,-5.5523545E-1,9.345754E-2,-8.544269E-1,-5.733504E-1,1.942104E-1,-1.1064276E0,-5.9474945E-1,-4.636351E-1,-1.0272053E0,-8.3888805E-1,-1.8988384E-1],"categories":[],"categories_nodes":[],"categories_segments":[],"categories_sizes":[],"default_left":[1,1,1,1,1,1,1,1,1,1,1,1,1,1,1,1,1,1,1,1,1,1,1,1,1,1,1,1,1,1,1,0,0,1,0,1,1,1,1,1,1,1,1,1,0,1,1,1,1,1,1,1,1,1,0,1,1,1,1,1,1,1,1,1,0,0,1,1,0,1,1,1,0,1,1,0,0,1,1,1,1,1,0,1,1,0,0,1,1,1,1,1,1,1,1,1,1,1,1,1,1,1,0,1,1,1,1,1,1,1,1,1,0,1,1,0,1,1,0,1,1,0,0,1,1,1,1,0,0,0,1,1,0,1,1,1,1,1,1,1,1,1,1,1,0,1,1,1,1,1,1,1,1,1,0,1,1,1,1,1,1,1,1,1,1,1,1,1,1,1,0,1,1,1,1,1,0,0,1,0,0,1,0,1,1,1,1,1,0,1,0,1,1,1,1,1,1,1,1,0,0,0,0,0,0,0,0,0,0,0,0,0,0,0,0,0,0,0,0,0,0,0,0,0,0,0,0,0,0,0,0,0,0,0,0,0,0,0,0,0,0,0,0,0,0,0,0,0,0,0,0,0,0,0,0,0,0,0,0,0,0,0,0,0,0,0,0,0,0,0,0,0,0,0,0,0,0,0,0,0,0,0,0,0,0,0,0,0,0,0,0,0,0,0,0,0,0,0,0,0,0,0,0,0,0,0,0,0,0,0,0,0,0,0,0,0,0,0,0,0,0,0,0,0,0,0,0,0,0,0,0],"id":4,"left_children":[1,3,5,7,9,11,13,15,17,19,21,23,25,27,29,31,33,35,37,39,41,43,45,47,49,51,53,55,57,59,61,-1,-1,63,-1,65,67,69,71,73,75,77,79,81,-1,83,85,87,89,91,93,95,97,99,-1,101,103,105,107,109,111,113,115,117,-1,-1,119,121,-1,123,125,127,-1,129,131,-1,-1,133,135,137,139,141,-1,143,145,-1,-1,147,149,151,153,155,157,159,161,163,165,167,169,171,173,175,-1,177,179,181,183,185,187,189,191,193,-1,195,197,-1,199,201,-1,203,205,-1,-1,207,209,211,213,-1,-1,-1,215,217,-1,219,221,223,225,227,229,231,233,235,237,239,-1,241,243,245,247,249,251,253,255,257,-1,259,261,263,265,267,269,271,273,275,277,279,281,283,285,287,-1,289,291,293,295,297,-1,-1,299,-1,-1,301,-1,303,305,307,309,311,-1,313,-1,315,317,319,321,323,325,327,329,-1,-1,-1,-1,-1,-1,-1,-1,-1,-1,-1,-1,-1,-1,-1,-1,-1,-1,-1,-1,-1,-1,-1,-1,-1,-1,-1,-1,-1,-1,-1,-1,-1,-1,-1,-1,-1,-1,-1,-1,-1,-1,-1,-1,-1,-1,-1,-1,-1,-1,-1,-1,-1,-1,-1,-1,-1,-1,-1,-1,-1,-1,-1,-1,-1,-1,-1,-1,-1,-1,-1,-1,-1,-1,-1,-1,-1,-1,-1,-1,-1,-1,-1,-1,-1,-1,-1,-1,-1,-1,-1,-1,-1,-1,-1,-1,-1,-1,-1,-1,-1,-1,-1,-1,-1,-1,-1,-1,-1,-1,-1,-1,-1,-1,-1,-1,-1,-1,-1,-1,-1,-1,-1,-1,-1,-1,-1,-1,-1,-1,-1,-1],"loss_changes":[5.755166E2,7.9996216E1,2.2577832E2,2.551264E1,5.0471313E1,1.1961865E2,3.4648438E1,1.3199585E1,3.315512E1,3.7121155E1,1.29036255E1,7.83833E1,4.7848633E1,2.8060547E1,7.751465E0,7.137416E0,6.5877724E0,1.6827236E1,1.4109751E1,1.2067444E1,3.5239075E1,7.1717224E0,1.0569992E1,4.472516E1,3.824829E1,3.0990234E1,1.6186584E1,7.988159E0,1.9991577E1,6.3969727E0,6.4008636E0,0E0,0E0,3.5759506E0,0E0,1.1718735E1,6.0469127E0,1.29837885E1,7.245451E0,1.0729828E1,9.446408E0,2.2726837E1,1.8382324E1,5.1414795E0,0E0,9.503418E0,5.6169567E0,2.9168121E1,1.9413025E1,1.1439209E1,3.36864E1,1.7916748E1,1.1531433E1,1.5377441E1,0E0,6.7369385E0,7.943413E0,8.479309E0,1.4631348E1,6.1899414E0,8.7438965E0,5.343918E0,4.516404E0,2.2125664E0,0E0,0E0,8.547695E0,2.7254324E0,0E0,2.0545624E1,1.1749886E1,5.59046E0,0E0,1.00405655E1,1.5777969E1,0E0,0E0,1.8668922E1,9.0887375E0,1.6284523E1,1.1205963E1,3.8892517E0,0E0,8.638104E0,9.516815E0,0E0,0E0,1.0180611E1,2.5854713E1,1.4364227E1,6.4005737E0,9.14563E0,1.1543389E1,8.661987E0,3.2425476E1,1.5367676E1,1.0719971E1,1.044397E1,5.486908E0,2.4839172E1,1.3731262E1,5.9978027E0,0E0,4.2379837E0,3.9293485E0,5.531616E0,5.544487E0,1.3854675E1,8.651825E0,3.538025E0,4.666504E0,8.448975E0,0E0,4.385874E0,2.6211853E0,0E0,2.227687E0,2.4700928E-1,0E0,1.1004421E1,1.1755065E1,0E0,0E0,1.3017322E1,1.0630625E1,5.163044E0,8.155203E0,0E0,0E0,0E0,7.7797623E0,8.509796E0,0E0,1.6115547E1,1.5005814E1,8.850771E0,7.6278534E0,1.3658033E1,7.0743027E0,9.549469E0,9.609366E0,3.2785645E0,8.354994E0,6.2100086E0,0E0,6.93721E0,8.323219E0,5.472927E0,8.292198E0,1.861285E1,1.5367729E1,1.2610352E1,2.4786915E1,5.085495E0,0E0,5.8999023E0,7.5085635E0,8.146298E0,3.1243763E0,6.0739136E0,1.049865E1,8.263947E0,2.0328217E1,3.5264282E0,1.0197144E1,9.66748E0,6.7735367E0,1.0755829E1,1.1091517E1,4.8855743E0,0E0,1.9130352E1,1.2415466E1,1.1058655E1,2.8694E0,3.744629E0,0E0,0E0,4.6254044E0,0E0,0E0,3.4776611E0,0E0,9.54883E0,3.9939957E0,8.840069E0,1.4864502E1,3.6601257E0,0E0,1.8351746E0,0E0,3.635254E0,7.489929E0,3.5806885E0,9.562423E0,4.4448004E0,7.924099E-1,2.3007812E0,2.956625E0,0E0,0E0,0E0,0E0,0E0,0E0,0E0,0E0,0E0,0E0,0E0,0E0,0E0,0E0,0E0,0E0,0E0,0E0,0E0,0E0,0E0,0E0,0E0,0E0,0E0,0E0,0E0,0E0,0E0,0E0,0E0,0E0,0E0,0E0,0E0,0E0,0E0,0E0,0E0,0E0,0E0,0E0,0E0,0E0,0E0,0E0,0E0,0E0,0E0,0E0,0E0,0E0,0E0,0E0,0E0,0E0,0E0,0E0,0E0,0E0,0E0,0E0,0E0,0E0,0E0,0E0,0E0,0E0,0E0,0E0,0E0,0E0,0E0,0E0,0E0,0E0,0E0,0E0,0E0,0E0,0E0,0E0,0E0,0E0,0E0,0E0,0E0,0E0,0E0,0E0,0E0,0E0,0E0,0E0,0E0,0E0,0E0,0E0,0E0,0E0,0E0,0E0,0E0,0E0,0E0,0E0,0E0,0E0,0E0,0E0,0E0,0E0,0E0,0E0,0E0,0E0,0E0,0E0,0E0,0E0,0E0,0E0,0E0,0E0,0E0,0E0,0E0,0E0,0E0,0E0,0E0,0E0],"parents":[2147483647,0,0,1,1,2,2,3,3,4,4,5,5,6,6,7,7,8,8,9,9,10,10,11,11,12,12,13,13,14,14,15,15,16,16,17,17,18,18,19,19,20,20,21,21,22,22,23,23,24,24,25,25,26,26,27,27,28,28,29,29,30,30,33,33,35,35,36,36,37,37,38,38,39,39,40,40,41,41,42,42,43,43,45,45,46,46,47,47,48,48,49,49,50,50,51,51,52,52,53,53,55,55,56,56,57,57,58,58,59,59,60,60,61,61,62,62,63,63,66,66,67,67,69,69,70,70,71,71,73,73,74,74,77,77,78,78,79,79,80,80,81,81,83,83,84,84,87,87,88,88,89,89,90,90,91,91,92,92,93,93,94,94,95,95,96,96,97,97,98,98,99,99,100,100,101,101,103,103,104,104,105,105,106,106,107,107,108,108,109,109,110,110,111,111,113,113,114,114,116,116,117,117,119,119,120,120,123,123,124,124,125,125,126,126,130,130,131,131,133,133,134,134,135,135,136,136,137,137,138,138,139,139,140,140,141,141,142,142,143,143,145,145,146,146,147,147,148,148,149,149,150,150,151,151,152,152,153,153,155,155,156,156,157,157,158,158,159,159,160,160,161,161,162,162,163,163,164,164,165,165,166,166,167,167,168,168,169,169,171,171,172,172,173,173,174,174,175,175,178,178,181,181,183,183,184,184,185,185,186,186,187,187,189,189,191,191,192,192,193,193,194,194,195,195,196,196,197,197,198,198],"right_children":[2,4,6,8,10,12,14,16,18,20,22,24,26,28,30,32,34,36,38,40,42,44,46,48,50,52,54,56,58,60,62,-1,-1,64,-1,66,68,70,72,74,76,78,80,82,-1,84,86,88,90,92,94,96,98,100,-1,102,104,106,108,110,112,114,116,118,-1,-1,120,122,-1,124,126,128,-1,130,132,-1,-1,134,136,138,140,142,-1,144,146,-1,-1,148,150,152,154,156,158,160,162,164,166,168,170,172,174,176,-1,178,180,182,184,186,188,190,192,194,-1,196,198,-1,200,202,-1,204,206,-1,-1,208,210,212,214,-1,-1,-1,216,218,-1,220,222,224,226,228,230,232,234,236,238,240,-1,242,244,246,248,250,252,254,256,258,-1,260,262,264,266,268,270,272,274,276,278,280,282,284,286,288,-1,290,292,294,296,298,-1,-1,300,-1,-1,302,-1,304,306,308,310,312,-1,314,-1,316,318,320,322,324,326,328,330,-1,-1,-1,-1,-1,-1,-1,-1,-1,-1,-1,-1,-1,-1,-1,-1,-1,-1,-1,-1,-1,-1,-1,-1,-1,-1,-1,-1,-1,-1,-1,-1,-1,-1,-1,-1,-1,-1,-1,-1,-1,-1,-1,-1,-1,-1,-1,-1,-1,-1,-1,-1,-1,-1,-1,-1,-1,-1,-1,-1,-1,-1,-1,-1,-1,-1,-1,-1,-1,-1,-1,-1,-1,-1,-1,-1,-1,-1,-1,-1,-1,-1,-1,-1,-1,-1,-1,-1,-1,-1,-1,-1,-1,-1,-1,-1,-1,-1,-1,-1,-1,-1,-1,-1,-1,-1,-1,-1,-1,-1,-1,-1,-1,-1,-1,-1,-1,-1,-1,-1,-1,-1,-1,-1,-1,-1,-1,-1,-1,-1,-1,-1],"split_conditions":[-1.0191631E0,-2.2389164E0,3.16547E-1,-2.899128E0,6.2338793E-1,-4.4530314E-1,-1.577585E-1,-6.4048487E-1,-2.5757158E0,-8.1481093E-1,-4.737559E-1,-3.403697E-1,6.7727333E-1,-1.1774726E-1,1.8434256E0,-4.4737777E-1,-1.04674496E-1,7.280151E-2,1.420099E0,3.6666698E0,-7.7186584E-2,2.3753319E0,1.899914E0,3.4492987E-1,-6.206473E-1,9.076164E-1,5.794627E0,1.8434256E0,-4.3655825E-1,8.1554437E-1,1.0891602E0,-1.8682843E-1,1.2356656E-1,7.682378E-1,-2.70288E-2,-1.0990553E0,5.237256E-2,6.2338793E-1,-5.1057972E-2,-4.6732354E-1,1.2341328E0,1.6651797E0,-1.6455579E0,2.197272E0,-3.1961452E-2,-6.3387424E-1,5.701169E-1,-4.8317152E-1,6.2338793E-1,